{"learner":{"attributes":{"best_iteration":"999","best_score":"0.9098722227918513"},"feature_names":["Age","Eye","Sex","WTW_IOLMaster","MeanK_IOLMaster","TK_IOLMaster_Astigmatism_Component_Half","TCA_Cassini_Astigmatism_Component_Half","Residual_Astigmatism"],"feature_types":["int","c","c","float","float","float","float","float"],"gradient_booster":{"model":{"gbtree_model_param":{"num_parallel_tree":"1","num_trees":"1000"},"iteration_indptr":[0,1,2,3,4,5,6,7,8,9,10,11,12,13,14,15,16,17,18,19,20,21,22,23,24,25,26,27,28,29,30,31,32,33,34,35,36,37,38,39,40,41,42,43,44,45,46,47,48,49,50,51,52,53,54,55,56,57,58,59,60,61,62,63,64,65,66,67,68,69,70,71,72,73,74,75,76,77,78,79,80,81,82,83,84,85,86,87,88,89,90,91,92,93,94,95,96,97,98,99,100,101,102,103,104,105,106,107,108,109,110,111,112,113,114,115,116,117,118,119,120,121,122,123,124,125,126,127,128,129,130,131,132,133,134,135,136,137,138,139,140,141,142,143,144,145,146,147,148,149,150,151,152,153,154,155,156,157,158,159,160,161,162,163,164,165,166,167,168,169,170,171,172,173,174,175,176,177,178,179,180,181,182,183,184,185,186,187,188,189,190,191,192,193,194,195,196,197,198,199,200,201,202,203,204,205,206,207,208,209,210,211,212,213,214,215,216,217,218,219,220,221,222,223,224,225,226,227,228,229,230,231,232,233,234,235,236,237,238,239,240,241,242,243,244,245,246,247,248,249,250,251,252,253,254,255,256,257,258,259,260,261,262,263,264,265,266,267,268,269,270,271,272,273,274,275,276,277,278,279,280,281,282,283,284,285,286,287,288,289,290,291,292,293,294,295,296,297,298,299,300,301,302,303,304,305,306,307,308,309,310,311,312,313,314,315,316,317,318,319,320,321,322,323,324,325,326,327,328,329,330,331,332,333,334,335,336,337,338,339,340,341,342,343,344,345,346,347,348,349,350,351,352,353,354,355,356,357,358,359,360,361,362,363,364,365,366,367,368,369,370,371,372,373,374,375,376,377,378,379,380,381,382,383,384,385,386,387,388,389,390,391,392,393,394,395,396,397,398,399,400,401,402,403,404,405,406,407,408,409,410,411,412,413,414,415,416,417,418,419,420,421,422,423,424,425,426,427,428,429,430,431,432,433,434,435,436,437,438,439,440,441,442,443,444,445,446,447,448,449,450,451,452,453,454,455,456,457,458,459,460,461,462,463,464,465,466,467,468,469,470,471,472,473,474,475,476,477,478,479,480,481,482,483,484,485,486,487,488,489,490,491,492,493,494,495,496,497,498,499,500,501,502,503,504,505,506,507,508,509,510,511,512,513,514,515,516,517,518,519,520,521,522,523,524,525,526,527,528,529,530,531,532,533,534,535,536,537,538,539,540,541,542,543,544,545,546,547,548,549,550,551,552,553,554,555,556,557,558,559,560,561,562,563,564,565,566,567,568,569,570,571,572,573,574,575,576,577,578,579,580,581,582,583,584,585,586,587,588,589,590,591,592,593,594,595,596,597,598,599,600,601,602,603,604,605,606,607,608,609,610,611,612,613,614,615,616,617,618,619,620,621,622,623,624,625,626,627,628,629,630,631,632,633,634,635,636,637,638,639,640,641,642,643,644,645,646,647,648,649,650,651,652,653,654,655,656,657,658,659,660,661,662,663,664,665,666,667,668,669,670,671,672,673,674,675,676,677,678,679,680,681,682,683,684,685,686,687,688,689,690,691,692,693,694,695,696,697,698,699,700,701,702,703,704,705,706,707,708,709,710,711,712,713,714,715,716,717,718,719,720,721,722,723,724,725,726,727,728,729,730,731,732,733,734,735,736,737,738,739,740,741,742,743,744,745,746,747,748,749,750,751,752,753,754,755,756,757,758,759,760,761,762,763,764,765,766,767,768,769,770,771,772,773,774,775,776,777,778,779,780,781,782,783,784,785,786,787,788,789,790,791,792,793,794,795,796,797,798,799,800,801,802,803,804,805,806,807,808,809,810,811,812,813,814,815,816,817,818,819,820,821,822,823,824,825,826,827,828,829,830,831,832,833,834,835,836,837,838,839,840,841,842,843,844,845,846,847,848,849,850,851,852,853,854,855,856,857,858,859,860,861,862,863,864,865,866,867,868,869,870,871,872,873,874,875,876,877,878,879,880,881,882,883,884,885,886,887,888,889,890,891,892,893,894,895,896,897,898,899,900,901,902,903,904,905,906,907,908,909,910,911,912,913,914,915,916,917,918,919,920,921,922,923,924,925,926,927,928,929,930,931,932,933,934,935,936,937,938,939,940,941,942,943,944,945,946,947,948,949,950,951,952,953,954,955,956,957,958,959,960,961,962,963,964,965,966,967,968,969,970,971,972,973,974,975,976,977,978,979,980,981,982,983,984,985,986,987,988,989,990,991,992,993,994,995,996,997,998,999,1000],"tree_info":[0,0,0,0,0,0,0,0,0,0,0,0,0,0,0,0,0,0,0,0,0,0,0,0,0,0,0,0,0,0,0,0,0,0,0,0,0,0,0,0,0,0,0,0,0,0,0,0,0,0,0,0,0,0,0,0,0,0,0,0,0,0,0,0,0,0,0,0,0,0,0,0,0,0,0,0,0,0,0,0,0,0,0,0,0,0,0,0,0,0,0,0,0,0,0,0,0,0,0,0,0,0,0,0,0,0,0,0,0,0,0,0,0,0,0,0,0,0,0,0,0,0,0,0,0,0,0,0,0,0,0,0,0,0,0,0,0,0,0,0,0,0,0,0,0,0,0,0,0,0,0,0,0,0,0,0,0,0,0,0,0,0,0,0,0,0,0,0,0,0,0,0,0,0,0,0,0,0,0,0,0,0,0,0,0,0,0,0,0,0,0,0,0,0,0,0,0,0,0,0,0,0,0,0,0,0,0,0,0,0,0,0,0,0,0,0,0,0,0,0,0,0,0,0,0,0,0,0,0,0,0,0,0,0,0,0,0,0,0,0,0,0,0,0,0,0,0,0,0,0,0,0,0,0,0,0,0,0,0,0,0,0,0,0,0,0,0,0,0,0,0,0,0,0,0,0,0,0,0,0,0,0,0,0,0,0,0,0,0,0,0,0,0,0,0,0,0,0,0,0,0,0,0,0,0,0,0,0,0,0,0,0,0,0,0,0,0,0,0,0,0,0,0,0,0,0,0,0,0,0,0,0,0,0,0,0,0,0,0,0,0,0,0,0,0,0,0,0,0,0,0,0,0,0,0,0,0,0,0,0,0,0,0,0,0,0,0,0,0,0,0,0,0,0,0,0,0,0,0,0,0,0,0,0,0,0,0,0,0,0,0,0,0,0,0,0,0,0,0,0,0,0,0,0,0,0,0,0,0,0,0,0,0,0,0,0,0,0,0,0,0,0,0,0,0,0,0,0,0,0,0,0,0,0,0,0,0,0,0,0,0,0,0,0,0,0,0,0,0,0,0,0,0,0,0,0,0,0,0,0,0,0,0,0,0,0,0,0,0,0,0,0,0,0,0,0,0,0,0,0,0,0,0,0,0,0,0,0,0,0,0,0,0,0,0,0,0,0,0,0,0,0,0,0,0,0,0,0,0,0,0,0,0,0,0,0,0,0,0,0,0,0,0,0,0,0,0,0,0,0,0,0,0,0,0,0,0,0,0,0,0,0,0,0,0,0,0,0,0,0,0,0,0,0,0,0,0,0,0,0,0,0,0,0,0,0,0,0,0,0,0,0,0,0,0,0,0,0,0,0,0,0,0,0,0,0,0,0,0,0,0,0,0,0,0,0,0,0,0,0,0,0,0,0,0,0,0,0,0,0,0,0,0,0,0,0,0,0,0,0,0,0,0,0,0,0,0,0,0,0,0,0,0,0,0,0,0,0,0,0,0,0,0,0,0,0,0,0,0,0,0,0,0,0,0,0,0,0,0,0,0,0,0,0,0,0,0,0,0,0,0,0,0,0,0,0,0,0,0,0,0,0,0,0,0,0,0,0,0,0,0,0,0,0,0,0,0,0,0,0,0,0,0,0,0,0,0,0,0,0,0,0,0,0,0,0,0,0,0,0,0,0,0,0,0,0,0,0,0,0,0,0,0,0,0,0,0,0,0,0,0,0,0,0,0,0,0,0,0,0,0,0,0,0,0,0,0,0,0,0,0,0,0,0,0,0,0,0,0,0,0,0,0,0,0,0,0,0,0,0,0,0,0,0,0,0,0,0,0,0,0,0,0,0,0,0,0,0,0,0,0,0,0,0,0,0,0,0,0,0,0,0,0,0,0,0,0,0,0,0,0,0,0,0,0,0,0,0,0,0,0,0,0,0,0,0,0,0,0,0,0,0,0,0,0,0,0,0,0,0,0,0,0,0,0,0,0,0,0,0,0,0,0,0,0,0,0,0,0,0,0,0,0,0,0,0,0,0,0,0,0,0,0,0,0,0,0,0,0,0,0,0,0,0,0,0,0,0,0,0,0,0,0,0,0,0,0,0,0,0,0,0,0,0,0,0,0,0,0,0,0,0,0,0,0,0,0,0,0,0,0,0,0,0,0,0,0,0,0,0,0,0,0,0,0,0,0,0,0,0,0,0,0,0,0,0,0,0,0,0,0,0,0,0,0,0,0,0,0,0,0,0,0,0,0,0,0,0,0,0,0,0,0,0,0,0,0,0,0,0,0,0,0,0,0,0,0,0,0,0],"trees":[{"base_weights":[-7.870244E-2,-2.8673759E0,1.199704E1,-1.8187304E1,-1.844021E0,7.755235E0,1.493498E1,-2.777869E-1,-5.721293E0,-3.1704984E0,6.5267663E0,6.030581E0,1.0572551E1,1.510227E-1,2.6997145E-2,-8.270572E-2,-4.1294523E-2,-1.1862278E1,-2.411913E0,-5.278491E0,7.5363727E0,3.7944262E0,7.186318E-2,1.0970491E-1,2.5006924E-2,-1.670578E-1,-9.452263E-2,-3.5921343E-2,-5.9086173E-3,-8.678856E-2,-1.1862882E-3,2.2690257E-2,8.048451E-2,1.0500679E-2,3.9484527E-2],"categories":[],"categories_nodes":[],"categories_segments":[],"categories_sizes":[],"default_left":[0,0,0,1,1,0,0,0,0,0,0,0,0,0,0,0,0,0,1,0,0,0,0,0,0,0,0,0,0,0,0,0,0,0,0],"id":0,"left_children":[1,3,5,7,9,11,13,-1,15,17,19,21,23,-1,-1,-1,-1,25,27,29,31,33,-1,-1,-1,-1,-1,-1,-1,-1,-1,-1,-1,-1,-1],"loss_changes":[1.794966E4,6.754915E3,1.1303936E3,3.0693613E3,4.5398833E3,1.4517407E2,7.794629E1,0E0,1.8601715E1,2.2922866E3,7.072256E2,4.767993E1,2.0748047E1,0E0,0E0,0E0,0E0,1.6893384E2,6.9638184E2,8.669751E1,1.21997314E2,9.263153E-1,0E0,0E0,0E0,0E0,0E0,0E0,0E0,0E0,0E0,0E0,0E0,0E0,0E0],"parents":[2147483647,0,0,1,1,2,2,3,3,4,4,5,5,6,6,8,8,9,9,10,10,11,11,12,12,17,17,18,18,19,19,20,20,21,21],"right_children":[2,4,6,8,10,12,14,-1,16,18,20,22,24,-1,-1,-1,-1,26,28,30,32,34,-1,-1,-1,-1,-1,-1,-1,-1,-1,-1,-1,-1,-1],"split_conditions":[1.9151111E-1,1.0673253E-1,3.715724E-1,1.2639733E-1,5.696528E-1,4.674253E-1,4.668E1,-2.777869E-1,-2.4620193E-1,-1.0959279E-1,-2.1706022E-1,2.4031542E-1,3.4202015E-1,1.510227E-1,2.6997145E-2,-8.270572E-2,-4.1294523E-2,-3.8302222E-1,3.7587705E-1,4.246E1,4.15E-1,1.970027E-1,7.186318E-2,1.0970491E-1,2.5006924E-2,-1.670578E-1,-9.452263E-2,-3.5921343E-2,-5.9086173E-3,-8.678856E-2,-1.1862882E-3,2.2690257E-2,8.048451E-2,1.0500679E-2,3.9484527E-2],"split_indices":[7,6,7,5,6,6,4,0,7,7,7,7,7,0,0,0,0,7,6,4,5,7,0,0,0,0,0,0,0,0,0,0,0,0,0],"split_type":[0,0,0,0,0,0,0,0,0,0,0,0,0,0,0,0,0,0,0,0,0,0,0,0,0,0,0,0,0,0,0,0,0,0,0],"sum_hessian":[5.31E2,4.32E2,9.9E1,2.6E1,4.06E2,4.2E1,5.7E1,1.4E1,1.2E1,3.51E2,5.5E1,2.8E1,1.4E1,5.6E1,1E0,3E0,9E0,2.7E1,3.24E2,4E0,5.1E1,1.1E1,1.7E1,1.3E1,1E0,7E0,2E1,1.96E2,1.28E2,2E0,2E0,5E0,4.6E1,1E0,1E1],"tree_param":{"num_deleted":"0","num_feature":"8","num_nodes":"35","size_leaf_vector":"1"}},{"base_weights":[6.713621E-2,-2.520037E0,1.1843464E1,-4.1009502E0,6.4287477E0,7.6652503E0,1.5231466E-1,-1.7285986E1,-3.141965E0,-1.4461039E0,8.030011E0,6.7350626E0,1.258896E-1,-2.6953274E-1,-6.289003E-2,-1.135595E1,-2.415692E0,-6.947729E0,2.1731749E0,1.8771698E0,8.47578E0,5.3696256E0,8.652816E0,-1.1628448E-1,-1.999259E-2,-3.543944E-2,-4.7072745E-3,-7.9119585E-2,-1.5454054E-2,2.8490072E-2,-1.2788267E-2,3.0751247E-2,5.349159E-4,1.0095806E-1,6.0646243E-2,5.487124E-2,1.2160806E-2,3.6667097E-2,9.137855E-2],"categories":[0],"categories_nodes":[17],"categories_segments":[0],"categories_sizes":[1],"default_left":[0,1,0,0,0,0,0,1,0,0,0,0,0,0,0,1,1,0,0,0,1,0,0,0,0,0,0,0,0,0,0,0,0,0,0,0,0,0,0],"id":1,"left_children":[1,3,5,7,9,11,-1,13,15,17,19,21,-1,-1,-1,23,25,27,29,31,33,35,37,-1,-1,-1,-1,-1,-1,-1,-1,-1,-1,-1,-1,-1,-1,-1,-1],"loss_changes":[1.6238503E4,6.208713E3,1.2422041E3,4.6493496E3,8.43853E2,1.2131128E2,0E0,2.488266E3,2.0485947E3,2.540416E2,1.3494067E2,5.828064E1,0E0,0E0,0E0,4.8142822E1,7.0273755E2,1.3818207E1,2.230719E1,1.075893E1,1.379856E2,6.0161133E0,2.770874E0,0E0,0E0,0E0,0E0,0E0,0E0,0E0,0E0,0E0,0E0,0E0,0E0,0E0,0E0,0E0,0E0],"parents":[2147483647,0,0,1,1,2,2,3,3,4,4,5,5,7,7,8,8,9,9,10,10,11,11,15,15,16,16,17,17,18,18,19,19,20,20,21,21,22,22],"right_children":[2,4,6,8,10,12,-1,14,16,18,20,22,-1,-1,-1,24,26,28,30,32,34,36,38,-1,-1,-1,-1,-1,-1,-1,-1,-1,-1,-1,-1,-1,-1,-1,-1],"split_conditions":[1.9151111E-1,5.696528E-1,4.330127E-1,1.0673253E-1,4.5301157E-1,6.1343145E-1,1.5231466E-1,1.2639733E-1,-1.0959279E-1,-8.550504E-2,-1.25E-1,2.9389262E-1,1.258896E-1,-2.6953274E-1,-6.289003E-2,1.28E1,3.7587705E-1,NaN,7.5E1,7.5E1,5.5364805E-1,7.9E1,4.186E1,-1.1628448E-1,-1.999259E-2,-3.543944E-2,-4.7072745E-3,-7.9119585E-2,-1.5454054E-2,2.8490072E-2,-1.2788267E-2,3.0751247E-2,5.349159E-4,1.0095806E-1,6.0646243E-2,5.487124E-2,1.2160806E-2,3.6667097E-2,9.137855E-2],"split_indices":[7,6,7,6,5,6,0,5,7,7,7,7,0,0,0,3,6,1,0,0,5,0,4,0,0,0,0,0,0,0,0,0,0,0,0,0,0,0,0],"split_type":[0,0,0,0,0,0,0,0,0,0,0,0,0,0,0,0,0,1,0,0,0,0,0,0,0,0,0,0,0,0,0,0,0,0,0,0,0,0,0],"sum_hessian":[5.31E2,4.36E2,9.5E1,3.71E2,6.5E1,4.4E1,5.1E1,2.4E1,3.47E2,1.1E1,5.4E1,3.9E1,5E0,1.2E1,1.2E1,2.7E1,3.2E2,4E0,7E0,4E0,5E1,2.5E1,1.4E1,2.6E1,1E0,2.02E2,1.18E2,3E0,1E0,6E0,1E0,2E0,2E0,2.8E1,2.2E1,2.4E1,1E0,2E0,1.2E1],"tree_param":{"num_deleted":"0","num_feature":"8","num_nodes":"39","size_leaf_vector":"1"}},{"base_weights":[4.13023E-2,-3.0116107E0,1.0545043E1,-1.5890389E1,-1.9045907E0,6.428709E0,1.469248E-1,-2.7299592E-1,-5.4999223E0,-3.2385235E0,4.7529583E0,4.712909E0,1.3799351E-1,-2.0297393E-2,-6.0586426E-2,-1.0854037E1,-2.539767E0,-3.9128792E0,6.2697253E0,2.3203542E0,6.5953526E0,-1.2736079E-1,-7.596981E-2,-3.4041673E-2,-6.6121677E-3,-5.999249E-2,7.164879E-3,1.6301543E-2,8.18033E-2,1.4304365E-2,3.0910688E-2,6.745018E-2,1.2771959E-2],"categories":[],"categories_nodes":[],"categories_segments":[],"categories_sizes":[],"default_left":[0,0,0,1,1,0,0,0,0,0,0,0,0,0,0,0,1,0,0,1,0,0,0,0,0,0,0,0,0,0,0,0,0],"id":2,"left_children":[1,3,5,7,9,11,-1,-1,13,15,17,19,-1,-1,-1,21,23,25,27,29,31,-1,-1,-1,-1,-1,-1,-1,-1,-1,-1,-1,-1],"loss_changes":[1.68028E4,5.758104E3,1.9200703E3,3.643357E3,3.3456638E3,7.0640405E2,0E0,0E0,2.2602112E1,1.6380283E3,8.526083E2,2.1439294E2,0E0,0E0,0E0,6.2622314E1,4.6540906E2,1.00884125E2,4.6534155E2,1.2039368E1,1.3671753E1,0E0,0E0,0E0,0E0,0E0,0E0,0E0,0E0,0E0,0E0,0E0,0E0],"parents":[2147483647,0,0,1,1,2,2,3,3,4,4,5,5,8,8,9,9,10,10,11,11,15,15,16,16,17,17,18,18,19,19,20,20],"right_children":[2,4,6,8,10,12,-1,-1,14,16,18,20,-1,-1,-1,22,24,26,28,30,32,-1,-1,-1,-1,-1,-1,-1,-1,-1,-1,-1,-1],"split_conditions":[8.682409E-2,1.22966975E-1,3.715724E-1,1.2639733E-1,5.49665E-1,5.75E-1,1.469248E-1,-2.7299592E-1,6.2E1,-1.0959279E-1,-8.550504E-2,2.1918558E-1,1.3799351E-1,-2.0297393E-2,-6.0586426E-2,-2.3492315E-1,3.9739227E-1,5.611234E-1,4.901827E-1,2.9318482E-1,5.262279E-1,-1.2736079E-1,-7.596981E-2,-3.4041673E-2,-6.6121677E-3,-5.999249E-2,7.164879E-3,1.6301543E-2,8.18033E-2,1.4304365E-2,3.0910688E-2,6.745018E-2,1.2771959E-2],"split_indices":[7,6,7,5,6,6,0,0,0,7,7,7,0,0,0,7,6,5,5,5,6,0,0,0,0,0,0,0,0,0,0,0,0],"split_type":[0,0,0,0,0,0,0,0,0,0,0,0,0,0,0,0,0,0,0,0,0,0,0,0,0,0,0,0,0,0,0,0,0],"sum_hessian":[5.22E2,4.05E2,1.17E2,3.1E1,3.74E2,6E1,5.7E1,1.4E1,1.7E1,3.12E2,6.2E1,5E1,1E1,3E0,1.4E1,2.5E1,2.87E2,9E0,5.3E1,2.3E1,2.7E1,1.4E1,1.1E1,1.96E2,9.1E1,6E0,3E0,1.6E1,3.7E1,1.2E1,1.1E1,2.6E1,1E0],"tree_param":{"num_deleted":"0","num_feature":"8","num_nodes":"33","size_leaf_vector":"1"}},{"base_weights":[9.899667E-3,-2.4421804E0,1.1470043E1,-4.0990124E0,5.507902E0,6.9929967E0,1.4598932E1,-1.43635845E1,-3.0449991E0,-2.9400156E0,6.8126664E0,5.509296E0,9.460898E0,1.0406449E1,1.529934E-1,-2.680731E-1,-5.383786E0,-1.2709149E1,-2.3581955E0,-5.9478273E0,1.8589242E0,4.3532286E0,9.214717E0,3.8779857E0,6.664566E0,6.911317E0,1.2667881E-1,1.0863079E-1,2.9200802E-2,-2.014516E-2,-5.8334135E-2,-1.3128512E-1,-1.9512776E-2,-3.401807E-2,-6.6547785E-3,-2.6010722E-2,-7.807626E-2,3.0498473E-2,4.8359553E-4,1.2485204E-2,5.7241984E-2,3.1382266E-2,9.944638E-2,4.1395787E-2,1.5389512E-2,1.3914394E-2,6.9418296E-2,7.374717E-2,1.3703556E-2],"categories":[],"categories_nodes":[],"categories_segments":[],"categories_sizes":[],"default_left":[0,1,0,0,0,0,0,1,0,0,0,0,1,1,0,0,0,1,1,0,0,0,0,0,0,1,0,0,0,0,0,0,0,0,0,0,0,0,0,0,0,0,0,0,0,0,0,0,0],"id":3,"left_children":[1,3,5,7,9,11,13,15,17,19,21,23,25,27,-1,-1,29,31,33,35,37,39,41,43,45,47,-1,-1,-1,-1,-1,-1,-1,-1,-1,-1,-1,-1,-1,-1,-1,-1,-1,-1,-1,-1,-1,-1,-1],"loss_changes":[1.5146453E4,5.870924E3,1.2286875E3,3.9376533E3,8.6876514E2,9.800391E1,2.2929688E0,3.6549102E3,2.193549E3,1.6983394E2,3.557019E2,2.6923828E1,2.6918823E1,5.882324E0,0E0,0E0,2.0061768E1,7.363452E1,5.524297E2,2.326181E1,1.0633728E1,1.4182935E2,1.1515869E2,2.1956635E0,1.2271545E1,1.5570831E1,0E0,0E0,0E0,0E0,0E0,0E0,0E0,0E0,0E0,0E0,0E0,0E0,0E0,0E0,0E0,0E0,0E0,0E0,0E0,0E0,0E0,0E0,0E0],"parents":[2147483647,0,0,1,1,2,2,3,3,4,4,5,5,6,6,7,7,8,8,9,9,10,10,11,11,12,12,13,13,16,16,17,17,18,18,19,19,20,20,21,21,22,22,23,23,24,24,25,25],"right_children":[2,4,6,8,10,12,14,16,18,20,22,24,26,28,-1,-1,30,32,34,36,38,40,42,44,46,48,-1,-1,-1,-1,-1,-1,-1,-1,-1,-1,-1,-1,-1,-1,-1,-1,-1,-1,-1,-1,-1,-1,-1],"split_conditions":[1.9151111E-1,5.49665E-1,3.715724E-1,1.22966975E-1,-8.550504E-2,4.674253E-1,4.4147378E-1,1.2431524E-1,-1.25E-1,5.611234E-1,6.9067407E-1,2.4031542E-1,5.420144E-1,5.15E-1,1.529934E-1,-2.680731E-1,6.2E1,1.29E1,3.7587705E-1,1.16E1,7.5E1,5.3179616E-1,4.674253E-1,7.9E1,1.3098992E-1,5.270966E-1,1.2667881E-1,1.0863079E-1,2.9200802E-2,-2.014516E-2,-5.8334135E-2,-1.3128512E-1,-1.9512776E-2,-3.401807E-2,-6.6547785E-3,-2.6010722E-2,-7.807626E-2,3.0498473E-2,4.8359553E-4,1.2485204E-2,5.7241984E-2,3.1382266E-2,9.944638E-2,4.1395787E-2,1.5389512E-2,1.3914394E-2,6.9418296E-2,7.374717E-2,1.3703556E-2],"split_indices":[7,6,7,6,7,6,7,5,7,5,6,7,5,5,0,0,0,3,6,3,0,5,5,0,5,5,0,0,0,0,0,0,0,0,0,0,0,0,0,0,0,0,0,0,0,0,0,0,0],"split_type":[0,0,0,0,0,0,0,0,0,0,0,0,0,0,0,0,0,0,0,0,0,0,0,0,0,0,0,0,0,0,0,0,0,0,0,0,0,0,0,0,0,0,0,0,0,0,0,0,0],"sum_hessian":[5.37E2,4.43E2,9.4E1,3.67E2,7.6E1,4E1,5.4E1,3.3E1,3.34E2,1E1,6.6E1,2.7E1,1.3E1,1E1,4.4E1,1.3E1,2E1,2.1E1,3.13E2,6E0,4E0,3.4E1,3.2E1,1.3E1,1.4E1,9E0,4E0,9E0,1E0,3E0,1.7E1,2E1,1E0,1.93E2,1.2E2,3E0,3E0,2E0,2E0,1.1E1,2.3E1,4E0,2.8E1,1.1E1,2E0,1E0,1.3E1,8E0,1E0],"tree_param":{"num_deleted":"0","num_feature":"8","num_nodes":"49","size_leaf_vector":"1"}},{"base_weights":[-3.3518606E-1,-2.8291829E0,1.1480723E1,-1.7998652E1,-1.8507706E0,7.5411873E0,1.442269E-1,-2.6795998E-1,-5.5020795E0,-3.2770593E0,6.1156864E0,6.3857613E0,1.2241004E-1,-1.5550283E-2,-6.1359867E-2,-1.2017637E1,-2.526988E0,-4.274635E0,7.5158114E0,5.354857E0,8.427537E0,-1.2330506E-1,-1.9415217E-2,-3.577767E-2,-8.234884E-3,-5.9591457E-2,5.192661E-3,4.5726098E-2,9.1991834E-2,5.4790944E-2,1.1244563E-2,2.3992566E-2,8.830762E-2],"categories":[],"categories_nodes":[],"categories_segments":[],"categories_sizes":[],"default_left":[0,0,0,1,1,0,0,0,0,0,0,0,0,0,0,1,1,0,0,0,1,0,0,0,0,0,0,0,0,0,0,0,0],"id":4,"left_children":[1,3,5,7,9,11,-1,-1,13,15,17,19,-1,-1,-1,21,23,25,27,29,31,-1,-1,-1,-1,-1,-1,-1,-1,-1,-1,-1,-1],"loss_changes":[1.5385747E4,6.363587E3,9.459248E2,2.71092E3,4.6332026E3,1.4447388E2,0E0,0E0,2.0483154E1,2.2314705E3,9.3408765E2,2.854248E1,0E0,0E0,0E0,6.1177734E1,5.6806433E2,6.769743E1,2.304331E2,7.5039673E0,3.1203003E0,0E0,0E0,0E0,0E0,0E0,0E0,0E0,0E0,0E0,0E0,0E0,0E0],"parents":[2147483647,0,0,1,1,2,2,3,3,4,4,5,5,8,8,9,9,10,10,11,11,15,15,16,16,17,17,18,18,19,19,20,20],"right_children":[2,4,6,8,10,12,-1,-1,14,16,18,20,-1,-1,-1,22,24,26,28,30,32,-1,-1,-1,-1,-1,-1,-1,-1,-1,-1,-1,-1],"split_conditions":[1.9151111E-1,1.0362969E-1,3.715724E-1,1.2639733E-1,5.696528E-1,6.1343145E-1,1.442269E-1,-2.6795998E-1,6.2E1,-1.25E-1,-1.7101008E-1,2.9389262E-1,1.2241004E-1,-1.5550283E-2,-6.1359867E-2,1.29E1,3.7587705E-1,1.21E1,6.9067407E-1,7.9E1,-1E-5,-1.2330506E-1,-1.9415217E-2,-3.577767E-2,-8.234884E-3,-5.9591457E-2,5.192661E-3,4.5726098E-2,9.1991834E-2,5.4790944E-2,1.1244563E-2,2.3992566E-2,8.830762E-2],"split_indices":[7,6,7,5,6,6,0,0,0,7,7,7,0,0,0,3,6,3,6,0,5,0,0,0,0,0,0,0,0,0,0,0,0],"split_type":[0,0,0,0,0,0,0,0,0,0,0,0,0,0,0,0,0,0,0,0,0,0,0,0,0,0,0,0,0,0,0,0,0],"sum_hessian":[5.2E2,4.3E2,9E1,2.5E1,4.05E2,4E1,5E1,1.4E1,1.1E1,3.44E2,6.1E1,3.4E1,6E0,2E0,9E0,2.6E1,3.18E2,7E0,5.4E1,2.5E1,9E0,2.5E1,1E0,1.96E2,1.22E2,5E0,2E0,2.1E1,3.3E1,2.4E1,1E0,1E0,8E0],"tree_param":{"num_deleted":"0","num_feature":"8","num_nodes":"33","size_leaf_vector":"1"}},{"base_weights":[-8.898009E-2,-2.4429324E0,1.094771E1,-3.9478383E0,6.3660183E0,7.4425817E0,1.4078712E-1,-1.4589279E1,-3.0083294E0,-4.684747E0,7.5899725E0,6.205408E0,1.254348E-1,-2.6068246E-1,-5.488398E0,-1.14740305E1,-2.2510803E0,-8.436479E-2,-1.4967587E0,5.664001E0,1.0274538E1,4.826147E0,8.323649E-2,-1.1584959E-2,-5.6749515E-2,-1.871257E-1,-1.01975046E-1,-3.3006478E-2,-5.688301E-3,-2.536871E-2,1.3318453E-2,8.252999E-2,4.1947216E-2,5.7252944E-2,1.0930941E-1,5.0381765E-2,1.521195E-2],"categories":[],"categories_nodes":[],"categories_segments":[],"categories_sizes":[],"default_left":[0,1,0,0,0,0,0,1,0,0,0,0,0,0,0,0,1,0,0,0,0,0,0,0,0,0,0,0,0,0,0,0,0,0,0,0,0],"id":5,"left_children":[1,3,5,7,9,11,-1,13,15,17,19,21,-1,-1,23,25,27,-1,29,31,33,35,-1,-1,-1,-1,-1,-1,-1,-1,-1,-1,-1,-1,-1,-1,-1],"loss_changes":[1.3744101E4,5.8050283E3,9.158535E2,3.6852637E3,9.0119727E2,2.1245483E2,0E0,2.9909893E3,2.179433E3,7.109596E1,2.4168799E2,7.377161E1,0E0,0E0,7.96521E0,6.7903564E1,5.57829E2,0E0,1.808905E1,1.0232349E2,6.0983887E0,1.0555359E1,0E0,0E0,0E0,0E0,0E0,0E0,0E0,0E0,0E0,0E0,0E0,0E0,0E0,0E0,0E0],"parents":[2147483647,0,0,1,1,2,2,3,3,4,4,5,5,7,7,8,8,9,9,10,10,11,11,14,14,15,15,16,16,18,18,19,19,20,20,21,21],"right_children":[2,4,6,8,10,12,-1,14,16,18,20,22,-1,-1,24,26,28,-1,30,32,34,36,-1,-1,-1,-1,-1,-1,-1,-1,-1,-1,-1,-1,-1,-1,-1],"split_conditions":[1.9151111E-1,5.696528E-1,4.330127E-1,1.22966975E-1,-1.7101008E-1,5.569323E-1,1.4078712E-1,1.2639733E-1,-1.0959279E-1,4.246E1,8.87832E-1,2.9389262E-1,1.254348E-1,-2.6068246E-1,5.5E1,-4.9240386E-1,3.7587705E-1,-8.436479E-2,1.16E1,6.5E1,6.1343145E-1,7.9E1,8.323649E-2,-1.1584959E-2,-5.6749515E-2,-1.871257E-1,-1.01975046E-1,-3.3006478E-2,-5.688301E-3,-2.536871E-2,1.3318453E-2,8.252999E-2,4.1947216E-2,5.7252944E-2,1.0930941E-1,5.0381765E-2,1.521195E-2],"split_indices":[7,6,7,6,7,6,0,5,7,4,5,7,0,0,0,7,6,0,3,0,6,0,0,0,0,0,0,0,0,0,0,0,0,0,0,0,0],"split_type":[0,0,0,0,0,0,0,0,0,0,0,0,0,0,0,0,0,0,0,0,0,0,0,0,0,0,0,0,0,0,0,0,0,0,0,0,0],"sum_hessian":[5.27E2,4.35E2,9.2E1,3.72E2,6.3E1,4.5E1,4.7E1,2.9E1,3.43E2,6E0,5.7E1,3.8E1,7E0,1.2E1,1.7E1,2.7E1,3.16E2,2E0,4E0,3.5E1,2.2E1,2.5E1,1.3E1,1E0,1.6E1,2E0,2.5E1,1.94E2,1.22E2,3E0,1E0,1.1E1,2.4E1,4E0,1.8E1,2.3E1,2E0],"tree_param":{"num_deleted":"0","num_feature":"8","num_nodes":"37","size_leaf_vector":"1"}},{"base_weights":[-2.6303747E-1,-2.6871173E0,1.1617876E1,-4.0953197E0,6.152427E0,5.1311965E0,1.339791E1,-1.5784862E1,-3.2300854E0,-2.4296463E0,7.493677E0,5.737262E0,2.6598241E-2,9.692813E0,1.4494044E-1,-2.5755283E-1,-5.3991218E0,-1.1612121E1,-2.36639E0,-4.7079277E0,1.5951877E0,5.179081E0,1.0774057E1,5.962232E0,1.1813497E-2,7.31993E-2,1.20405346E-1,-7.9836026E-2,-3.9684813E-2,-1.3383994E-1,-8.251435E-2,-3.8103607E-2,-9.344042E-3,-2.5178436E-2,-6.0587306E-2,3.122571E-2,4.520289E-4,2.500486E-2,6.234971E-2,5.679492E-2,1.16386905E-1,4.114136E-2,8.048687E-2],"categories":[],"categories_nodes":[],"categories_segments":[],"categories_sizes":[],"default_left":[0,1,0,0,0,0,0,1,0,0,0,1,0,0,0,0,0,0,1,0,0,0,0,0,0,0,0,0,0,0,0,0,0,0,0,0,0,0,0,0,0,0,0],"id":6,"left_children":[1,3,5,7,9,11,13,15,17,19,21,23,-1,25,-1,-1,27,29,31,33,35,37,39,41,-1,-1,-1,-1,-1,-1,-1,-1,-1,-1,-1,-1,-1,-1,-1,-1,-1,-1,-1],"loss_changes":[1.5295369E4,5.514706E3,9.7043945E2,3.8025215E3,7.2035986E2,1.6193909E1,1.4380176E2,2.5532495E3,2.549792E3,9.003738E1,3.466162E2,9.355774E0,0E0,1.7710571E1,0E0,0E0,2.0081726E1,8.606836E1,6.663889E2,2.4953003E0,9.328534E0,7.774341E1,2.6401855E1,2.4726196E1,0E0,0E0,0E0,0E0,0E0,0E0,0E0,0E0,0E0,0E0,0E0,0E0,0E0,0E0,0E0,0E0,0E0,0E0,0E0],"parents":[2147483647,0,0,1,1,2,2,3,3,4,4,5,5,6,6,7,7,8,8,9,9,10,10,11,11,13,13,16,16,17,17,18,18,19,19,20,20,21,21,22,22,23,23],"right_children":[2,4,6,8,10,12,14,16,18,20,22,24,-1,26,-1,-1,28,30,32,34,36,38,40,42,-1,-1,-1,-1,-1,-1,-1,-1,-1,-1,-1,-1,-1,-1,-1,-1,-1,-1,-1],"split_conditions":[1.9151111E-1,5.696528E-1,2.4939102E-1,1.0362969E-1,-8.550504E-2,7.5E1,3.596699E-1,1.2639733E-1,-1.0959279E-1,5.611234E-1,8.87832E-1,1.27E1,2.6598241E-2,3.325702E-1,1.4494044E-1,-2.5755283E-1,-2.4620193E-1,-2.3492315E-1,3.1551662E-1,1.16E1,6.3E1,5.25E-1,6.1343145E-1,4.3331543E-1,1.1813497E-2,7.31993E-2,1.20405346E-1,-7.9836026E-2,-3.9684813E-2,-1.3383994E-1,-8.251435E-2,-3.8103607E-2,-9.344042E-3,-2.5178436E-2,-6.0587306E-2,3.122571E-2,4.520289E-4,2.500486E-2,6.234971E-2,5.679492E-2,1.16386905E-1,4.114136E-2,8.048687E-2],"split_indices":[7,6,7,6,7,0,7,5,7,5,5,3,0,6,0,0,7,7,6,3,0,5,6,5,0,0,0,0,0,0,0,0,0,0,0,0,0,0,0,0,0,0,0],"split_type":[0,0,0,0,0,0,0,0,0,0,0,0,0,0,0,0,0,0,0,0,0,0,0,0,0,0,0,0,0,0,0,0,0,0,0,0,0,0,0,0,0,0,0],"sum_hessian":[5.29E2,4.4E2,8.9E1,3.8E2,6E1,2E1,6.9E1,2.5E1,3.55E2,8E0,5.2E1,1.5E1,5E0,1.8E1,5.1E1,1.2E1,1.3E1,3.2E1,3.23E2,5E0,3E0,3.2E1,2E1,1.4E1,1E0,1.1E1,7E0,3E0,1E1,1.9E1,1.3E1,1.6E2,1.63E2,3E0,2E0,1E0,2E0,1E1,2.2E1,4E0,1.6E1,9E0,5E0],"tree_param":{"num_deleted":"0","num_feature":"8","num_nodes":"43","size_leaf_vector":"1"}},{"base_weights":[-1.0388726E-1,-2.4227319E0,1.073532E1,-3.8336976E0,6.3421187E0,7.337074E0,1.4121552E-1,-1.4338158E1,-2.9010441E0,-2.9910777E0,7.4345307E0,5.432762E0,9.526772E0,-2.4045532E1,-5.500428E0,-1.1298855E1,-2.203113E0,-4.5110197E0,5.391852E-1,2.7761905E0,8.561637E0,3.9032931E0,6.8972807E0,9.885566E0,1.1754427E-2,-1.765088E-2,-2.5623634E-1,-1.4954267E-2,-5.934733E-2,-1.5352806E-1,-8.99725E-2,-3.6729086E-2,-8.776819E-3,-2.4989596E-2,-6.27963E-2,1.32495975E-2,-5.1618195E-3,9.460721E-3,4.44863E-2,1.026811E-1,6.6313066E-2,4.1409086E-2,1.4933224E-2,7.1848586E-2,1.7231721E-2,5.9289373E-2,1.08091794E-1],"categories":[],"categories_nodes":[],"categories_segments":[],"categories_sizes":[],"default_left":[0,1,0,0,0,0,0,1,0,0,0,0,1,0,0,0,1,0,0,0,1,0,0,0,0,0,0,0,0,0,0,0,0,0,0,0,0,0,0,0,0,0,0,0,0,0,0],"id":7,"left_children":[1,3,5,7,9,11,-1,13,15,17,19,21,23,25,27,29,31,33,35,37,39,41,43,45,-1,-1,-1,-1,-1,-1,-1,-1,-1,-1,-1,-1,-1,-1,-1,-1,-1,-1,-1,-1,-1,-1,-1],"loss_changes":[1.312105E4,5.342083E3,9.5505664E2,3.5931006E3,6.33979E2,1.4839697E2,0E0,2.441474E3,1.9796008E3,3.9992847E1,2.5975513E2,3.5796143E1,5.1304688E1,4.470244E2,2.0694763E1,1.044624E2,6.143279E2,2.100212E0,3.1717622E0,3.2520416E1,7.355371E1,2.978653E0,6.9627686E0,9.001099E0,0E0,0E0,0E0,0E0,0E0,0E0,0E0,0E0,0E0,0E0,0E0,0E0,0E0,0E0,0E0,0E0,0E0,0E0,0E0,0E0,0E0,0E0,0E0],"parents":[2147483647,0,0,1,1,2,2,3,3,4,4,5,5,7,7,8,8,9,9,10,10,11,11,12,12,13,13,14,14,15,15,16,16,17,17,18,18,19,19,20,20,21,21,22,22,23,23],"right_children":[2,4,6,8,10,12,-1,14,16,18,20,22,24,26,28,30,32,34,36,38,40,42,44,46,-1,-1,-1,-1,-1,-1,-1,-1,-1,-1,-1,-1,-1,-1,-1,-1,-1,-1,-1,-1,-1,-1,-1],"split_conditions":[1.9151111E-1,5.696528E-1,4.330127E-1,1.22966975E-1,-1.7101008E-1,3.9283615E-1,1.4121552E-1,1.2639733E-1,-1.0959279E-1,1.21E1,5.25E-1,2.4863048E-1,1.27E1,5.8E1,6.2E1,-3.8302222E-1,3.1551662E-1,1.16E1,7.5E1,4.314E1,5.5364805E-1,7.9E1,3.3813745E-1,2.0725939E-1,1.1754427E-2,-1.765088E-2,-2.5623634E-1,-1.4954267E-2,-5.934733E-2,-1.5352806E-1,-8.99725E-2,-3.6729086E-2,-8.776819E-3,-2.4989596E-2,-6.27963E-2,1.32495975E-2,-5.1618195E-3,9.460721E-3,4.44863E-2,1.026811E-1,6.6313066E-2,4.1409086E-2,1.4933224E-2,7.1848586E-2,1.7231721E-2,5.9289373E-2,1.08091794E-1],"split_indices":[7,6,7,6,7,6,0,5,7,3,5,7,3,0,0,7,6,3,0,4,5,0,6,7,0,0,0,0,0,0,0,0,0,0,0,0,0,0,0,0,0,0,0,0,0,0,0],"split_type":[0,0,0,0,0,0,0,0,0,0,0,0,0,0,0,0,0,0,0,0,0,0,0,0,0,0,0,0,0,0,0,0,0,0,0,0,0,0,0,0,0,0,0,0,0,0,0],"sum_hessian":[5.2E2,4.29E2,9.1E1,3.7E2,5.9E1,4.7E1,4.4E1,2.9E1,3.41E2,6E0,5.3E1,2.7E1,2E1,1.3E1,1.6E1,2.5E1,3.16E2,4E0,2E0,1.1E1,4.2E1,1.5E1,1.2E1,1.9E1,1E0,1E0,1.2E1,2E0,1.4E1,7E0,1.8E1,1.49E2,1.67E2,3E0,1E0,1E0,1E0,6E0,5E0,2E1,2.2E1,1.3E1,2E0,1.1E1,1E0,5E0,1.4E1],"tree_param":{"num_deleted":"0","num_feature":"8","num_nodes":"47","size_leaf_vector":"1"}},{"base_weights":[1.924966E-1,-2.4093034E0,1.1103032E1,-3.7931802E0,6.579715E0,7.195662E0,1.438227E-1,-1.6295599E1,-2.8535914E0,-1.3455594E0,8.258846E0,6.168789E0,1.2475645E-1,-2.56207E-1,-4.9996767E0,-1.0077835E1,-2.119957E0,1.1214212E0,-8.297981E-2,5.0930004E0,9.062395E0,5.0563445E0,7.9082613E0,-2.1360511E-2,-6.0350604E-2,-1.1801353E-1,-7.337757E-2,-2.9220479E-2,-1.3936976E-3,2.2346865E-2,-1.8500054E-2,6.9929354E-2,2.0275762E-2,1.3183345E-2,9.2408866E-2,5.2660704E-2,1.4833673E-2,3.2883517E-2,8.3660655E-2],"categories":[],"categories_nodes":[],"categories_segments":[],"categories_sizes":[],"default_left":[0,1,0,0,0,0,0,1,0,0,0,0,0,0,0,0,1,0,0,1,0,0,0,0,0,0,0,0,0,0,0,0,0,0,0,0,0,0,0],"id":8,"left_children":[1,3,5,7,9,11,-1,13,15,17,19,21,-1,-1,23,25,27,29,-1,31,33,35,37,-1,-1,-1,-1,-1,-1,-1,-1,-1,-1,-1,-1,-1,-1,-1,-1],"loss_changes":[1.5185426E4,5.3989053E3,1.2162686E3,4.3586743E3,7.8295215E2,1.8871216E2,0E0,2.6106304E3,1.8336194E3,1.9797192E2,7.595288E1,4.3220947E1,0E0,0E0,2.5653168E1,6.4526855E1,5.0635962E2,3.3906067E1,0E0,5.571057E1,3.8960938E1,1.3919495E1,4.2147827E0,0E0,0E0,0E0,0E0,0E0,0E0,0E0,0E0,0E0,0E0,0E0,0E0,0E0,0E0,0E0,0E0],"parents":[2147483647,0,0,1,1,2,2,3,3,4,4,5,5,7,7,8,8,9,9,10,10,11,11,14,14,15,15,16,16,17,17,19,19,20,20,21,21,22,22],"right_children":[2,4,6,8,10,12,-1,14,16,18,20,22,-1,-1,24,26,28,30,-1,32,34,36,38,-1,-1,-1,-1,-1,-1,-1,-1,-1,-1,-1,-1,-1,-1,-1,-1],"split_conditions":[1.9151111E-1,5.696528E-1,4.330127E-1,1.0673253E-1,4.5301157E-1,6.1343145E-1,1.438227E-1,1.2639733E-1,-5.2264232E-2,7.418241E-1,6.189175E-1,2.9389262E-1,1.2475645E-1,-2.56207E-1,6.7E1,-2.2073689E-1,4.0975025E-1,7.5E1,-8.297981E-2,5.5364805E-1,-3.4202015E-1,7.9E1,4.186E1,-2.1360511E-2,-6.0350604E-2,-1.1801353E-1,-7.337757E-2,-2.9220479E-2,-1.3936976E-3,2.2346865E-2,-1.8500054E-2,6.9929354E-2,2.0275762E-2,1.3183345E-2,9.2408866E-2,5.2660704E-2,1.4833673E-2,3.2883517E-2,8.3660655E-2],"split_indices":[7,6,7,6,5,6,0,5,7,6,6,7,0,0,0,7,6,0,0,5,7,0,4,0,0,0,0,0,0,0,0,0,0,0,0,0,0,0,0],"split_type":[0,0,0,0,0,0,0,0,0,0,0,0,0,0,0,0,0,0,0,0,0,0,0,0,0,0,0,0,0,0,0,0,0,0,0,0,0,0,0],"sum_hessian":[5.33E2,4.31E2,1.02E2,3.74E2,5.7E1,4.8E1,5.4E1,2.5E1,3.49E2,1E1,4.7E1,4.2E1,6E0,1.3E1,1.2E1,3.1E1,3.18E2,8E0,2E0,1.1E1,3.6E1,2.8E1,1.4E1,4E0,8E0,1.7E1,1.4E1,2.26E2,9.2E1,6E0,2E0,6E0,5E0,1E0,3.5E1,2.6E1,2E0,2E0,1.2E1],"tree_param":{"num_deleted":"0","num_feature":"8","num_nodes":"39","size_leaf_vector":"1"}},{"base_weights":[-6.5875694E-2,-2.3304694E0,1.1695319E1,-3.9723847E0,5.456712E0,8.283081E0,1.400845E-1,-1.9306646E1,-3.152042E0,-7.5764245E-1,7.2730994E0,6.406606E0,1.104228E-1,-2.6727265E-1,-5.762388E-2,-1.1413278E1,-2.447938E0,-6.6450577E0,1.2553388E0,8.081255E-1,7.8260245E0,3.284429E-2,6.844905E-2,-1.3378823E-1,-7.677648E-2,-3.4071144E-2,-6.7141205E-3,-7.5973906E-2,-1.4178629E-2,-8.587336E-3,2.7601352E-2,2.8928936E-2,-9.574818E-3,5.7343133E-2,9.517421E-2],"categories":[0],"categories_nodes":[17],"categories_segments":[0],"categories_sizes":[1],"default_left":[0,1,0,0,0,0,0,1,0,0,0,0,0,0,0,0,1,0,0,0,0,0,0,0,0,0,0,0,0,0,0,0,0,0,0],"id":9,"left_children":[1,3,5,7,9,11,-1,13,15,17,19,21,-1,-1,-1,23,25,27,29,31,33,-1,-1,-1,-1,-1,-1,-1,-1,-1,-1,-1,-1,-1,-1],"loss_changes":[1.451633E4,5.86483E3,5.7854785E2,4.6941396E3,9.085244E2,1.2600415E2,0E0,1.7556152E3,2.0660984E3,2.3351569E2,2.1530396E2,1.1729492E1,0E0,0E0,0E0,1.0287378E2,5.651449E2,1.4118103E1,5.008895E1,2.4855183E1,1.4708545E2,0E0,0E0,0E0,0E0,0E0,0E0,0E0,0E0,0E0,0E0,0E0,0E0,0E0,0E0],"parents":[2147483647,0,0,1,1,2,2,3,3,4,4,5,5,7,7,8,8,9,9,10,10,11,11,15,15,16,16,17,17,18,18,19,19,20,20],"right_children":[2,4,6,8,10,12,-1,14,16,18,20,22,-1,-1,-1,24,26,28,30,32,34,-1,-1,-1,-1,-1,-1,-1,-1,-1,-1,-1,-1,-1,-1],"split_conditions":[2.1918558E-1,5.49665E-1,4.330127E-1,9.886734E-2,4.5301157E-1,4.5971978E-1,1.400845E-1,1.2639733E-1,-1.0959279E-1,-8.550504E-2,-1.25E-1,2.4031542E-1,1.104228E-1,-2.6727265E-1,-5.762388E-2,-2.3492315E-1,3.7587705E-1,NaN,5.935506E-1,7.5E1,6.9067407E-1,3.284429E-2,6.844905E-2,-1.3378823E-1,-7.677648E-2,-3.4071144E-2,-6.7141205E-3,-7.5973906E-2,-1.4178629E-2,-8.587336E-3,2.7601352E-2,2.8928936E-2,-9.574818E-3,5.7343133E-2,9.517421E-2],"split_indices":[7,6,7,6,5,6,0,5,7,7,7,7,0,0,0,7,6,1,6,0,6,0,0,0,0,0,0,0,0,0,0,0,0,0,0],"split_type":[0,0,0,0,0,0,0,0,0,0,0,0,0,0,0,0,0,1,0,0,0,0,0,0,0,0,0,0,0,0,0,0,0,0,0],"sum_hessian":[5.43E2,4.56E2,8.7E1,3.77E2,7.9E1,3.7E1,5E1,1.8E1,3.59E2,1.8E1,6.1E1,2.4E1,1.3E1,1.1E1,7E0,2.7E1,3.32E2,4E0,1.4E1,5E0,5.6E1,4E0,2E1,1.6E1,1.1E1,2.15E2,1.17E2,3E0,1E0,6E0,8E0,2E0,3E0,2.7E1,2.9E1],"tree_param":{"num_deleted":"0","num_feature":"8","num_nodes":"35","size_leaf_vector":"1"}},{"base_weights":[-2.0651618E-1,-2.7076116E0,1.1274369E1,-1.4445552E1,-1.6470792E0,7.8352795E0,1.385185E-1,-2.44157E-1,-5.248649E0,-2.988635E0,6.027241E0,6.606803E0,1.2384014E-1,-7.790734E-2,-4.3417673E0,-1.097197E1,-2.213911E0,-3.3036566E0,7.321957E0,5.000447E0,8.5223384E-2,-1.7605666E-2,-4.5685563E-2,-1.3059646E-1,-7.653222E-2,-2.8927522E-2,1.765331E-4,5.212485E-3,-4.6654996E-2,4.9404223E-2,1.02135055E-1,5.279408E-2,1.4738871E-2],"categories":[],"categories_nodes":[],"categories_segments":[],"categories_sizes":[],"default_left":[0,0,0,1,1,0,0,0,0,0,0,0,0,0,0,0,1,1,0,0,0,0,0,0,0,0,0,0,0,0,0,0,0],"id":10,"left_children":[1,3,5,7,9,11,-1,-1,13,15,17,19,-1,-1,21,23,25,27,29,31,-1,-1,-1,-1,-1,-1,-1,-1,-1,-1,-1,-1,-1],"loss_changes":[1.5249365E4,5.4037383E3,7.335654E2,3.172852E3,4.146521E3,1.5846582E2,0E0,0E0,1.228186E1,2.0909385E3,7.49041E2,6.815784E1,0E0,0E0,1.9083557E0,1.07906006E2,4.7420776E2,4.4103256E1,3.1451587E2,1.3861816E1,0E0,0E0,0E0,0E0,0E0,0E0,0E0,0E0,0E0,0E0,0E0,0E0,0E0],"parents":[2147483647,0,0,1,1,2,2,3,3,4,4,5,5,8,8,9,9,10,10,11,11,14,14,15,15,16,16,17,17,18,18,19,19],"right_children":[2,4,6,8,10,12,-1,-1,14,16,18,20,-1,-1,22,24,26,28,30,32,-1,-1,-1,-1,-1,-1,-1,-1,-1,-1,-1,-1,-1],"split_conditions":[1.970027E-1,1.22966975E-1,4.330127E-1,1.2639733E-1,5.696528E-1,5.569323E-1,1.385185E-1,-2.44157E-1,-2.4620193E-1,-1.0959279E-1,-8.550504E-2,2.9389262E-1,1.2384014E-1,-7.790734E-2,6.2E1,-2.3492315E-1,4.3394035E-1,-1E-5,7.5583667E-1,7.9E1,8.5223384E-2,-1.7605666E-2,-4.5685563E-2,-1.3059646E-1,-7.653222E-2,-2.8927522E-2,1.765331E-4,5.212485E-3,-4.6654996E-2,4.9404223E-2,1.02135055E-1,5.279408E-2,1.4738871E-2],"split_indices":[7,6,7,5,6,6,0,0,7,7,7,7,0,0,0,7,6,5,5,0,0,0,0,0,0,0,0,0,0,0,0,0,0],"split_type":[0,0,0,0,0,0,0,0,0,0,0,0,0,0,0,0,0,0,0,0,0,0,0,0,0,0,0,0,0,0,0,0,0],"sum_hessian":[5.29E2,4.35E2,9.4E1,3.5E1,4E2,4.2E1,5.2E1,1.6E1,1.9E1,3.41E2,5.9E1,3.5E1,7E0,3E0,1.6E1,2.9E1,3.12E2,7E0,5.2E1,2.1E1,1.4E1,2E0,1.4E1,1.6E1,1.3E1,2.39E2,7.3E1,2E0,5E0,3E1,2.2E1,1.9E1,2E0],"tree_param":{"num_deleted":"0","num_feature":"8","num_nodes":"33","size_leaf_vector":"1"}},{"base_weights":[7.862645E-3,-2.6570318E0,9.538181E0,-3.9186528E0,5.4905167E0,5.99481E0,1.3354148E-1,-1.4582424E1,-3.127679E0,-2.9265358E0,6.9244547E0,-1.4433005E-1,6.557081E0,-2.4273378E-1,-5.2342896E0,-1.0326836E1,-2.477825E0,-6.0229664E0,2.4497437E0,3.2209988E0,7.5685196E0,5.0652647E0,1.1790447E-1,-2.9796833E-2,-6.552784E-2,-1.1714521E-1,-7.824542E-2,-3.215204E-2,-1.16656E-3,-7.505418E-2,-2.0387078E-2,2.8874213E-2,5.6835553E-3,3.9679106E-2,-1.3771486E-2,9.475127E-2,5.664429E-2,2.3698272E-2,6.264005E-2],"categories":[0],"categories_nodes":[17],"categories_segments":[0],"categories_sizes":[1],"default_left":[0,1,0,0,0,0,0,1,0,0,0,0,0,0,0,0,1,0,0,0,0,0,0,0,0,0,0,0,0,0,0,0,0,0,0,0,0,0,0],"id":11,"left_children":[1,3,5,7,9,11,-1,13,15,17,19,-1,21,-1,23,25,27,29,31,33,35,37,-1,-1,-1,-1,-1,-1,-1,-1,-1,-1,-1,-1,-1,-1,-1,-1,-1],"loss_changes":[1.3714484E4,4.3593027E3,1.5154697E3,3.0415132E3,7.082279E2,8.182549E2,0E0,2.137755E3,1.5744255E3,1.645802E2,9.2499756E1,0E0,4.2432593E2,0E0,2.2092377E1,5.5666504E0,5.4806433E2,2.0137497E1,1.6526814E0,3.6374107E1,9.517334E1,1.4671179E2,0E0,0E0,0E0,0E0,0E0,0E0,0E0,0E0,0E0,0E0,0E0,0E0,0E0,0E0,0E0,0E0,0E0],"parents":[2147483647,0,0,1,1,2,2,3,3,4,4,5,5,7,7,8,8,9,9,10,10,12,12,14,14,15,15,16,16,17,17,18,18,19,19,20,20,21,21],"right_children":[2,4,6,8,10,12,-1,14,16,18,20,-1,22,-1,24,26,28,30,32,34,36,38,-1,-1,-1,-1,-1,-1,-1,-1,-1,-1,-1,-1,-1,-1,-1,-1,-1],"split_conditions":[8.682409E-2,5.696528E-1,3.715724E-1,1.0362969E-1,-8.550504E-2,5.2869394E-2,1.3354148E-1,1.2639733E-1,-1.0959279E-1,5.611234E-1,5.25E-1,-1.4433005E-1,5.696528E-1,-2.4273378E-1,7E1,-2.2073689E-1,4.3394035E-1,NaN,7.5E1,7.3E1,6.7E1,1.970027E-1,1.1790447E-1,-2.9796833E-2,-6.552784E-2,-1.1714521E-1,-7.824542E-2,-3.215204E-2,-1.16656E-3,-7.505418E-2,-2.0387078E-2,2.8874213E-2,5.6835553E-3,3.9679106E-2,-1.3771486E-2,9.475127E-2,5.664429E-2,2.3698272E-2,6.264005E-2],"split_indices":[7,6,7,6,7,5,0,5,7,5,5,0,6,0,0,7,6,1,0,0,0,7,0,0,0,0,0,0,0,0,0,0,0,0,0,0,0,0,0],"split_type":[0,0,0,0,0,0,0,0,0,0,0,0,0,0,0,0,0,1,0,0,0,0,0,0,0,0,0,0,0,0,0,0,0,0,0,0,0,0,0],"sum_hessian":[5.38E2,4.21E2,1.17E2,3.65E2,5.6E1,6.2E1,5.5E1,2.4E1,3.41E2,8E0,4.8E1,1E0,6.1E1,1.1E1,1.3E1,2.7E1,3.14E2,5E0,3E0,8E0,4E1,4.9E1,1.2E1,6E0,7E0,1.5E1,1.2E1,2.39E2,7.5E1,3E0,2E0,2E0,1E0,7E0,1E0,1.8E1,2.2E1,1.6E1,3.3E1],"tree_param":{"num_deleted":"0","num_feature":"8","num_nodes":"39","size_leaf_vector":"1"}},{"base_weights":[7.3732994E-2,-2.6527572E0,9.437058E0,-4.063039E0,5.3809457E0,4.6467514E0,1.2588816E1,-1.3109699E1,-3.0701716E0,-4.0784926E0,6.6362057E0,-1.4360839E-1,5.3277397E0,9.408593E0,1.4147905E-1,-2.3382626E1,-5.147622E0,-1.0703515E1,-2.3658938E0,-9.948956E-1,-6.913366E0,3.3248215E0,7.4637465E0,3.4065719E0,1.0385854E1,7.152437E-2,1.1288113E-1,-1.586462E-2,-2.4826175E-1,-7.683158E-2,-4.2981904E-2,-1.8063211E-1,-9.392211E-2,-3.9322108E-2,-1.0183702E-2,1.2802352E-2,-1.883737E-2,-8.1108734E-2,-1.6604222E-2,-8.910589E-3,3.7504E-2,9.073047E-2,5.744618E-2,1.31051345E-2,3.8519684E-2,4.0309705E-2,1.1889221E-1],"categories":[0],"categories_nodes":[20],"categories_segments":[0],"categories_sizes":[1],"default_left":[0,1,0,0,0,0,0,1,0,0,0,0,0,0,0,1,0,0,1,0,0,0,1,0,0,0,0,0,0,0,0,0,0,0,0,0,0,0,0,0,0,0,0,0,0,0,0],"id":12,"left_children":[1,3,5,7,9,11,13,15,17,19,21,-1,23,25,-1,27,29,31,33,35,37,39,41,43,45,-1,-1,-1,-1,-1,-1,-1,-1,-1,-1,-1,-1,-1,-1,-1,-1,-1,-1,-1,-1,-1,-1],"loss_changes":[1.3810703E4,4.7690425E3,1.7834443E3,3.1663726E3,7.751311E2,7.2370825E2,2.2883887E2,2.74242E3,1.7111223E3,6.305478E1,1.286416E2,0E0,4.4077673E2,3.375586E1,0E0,4.3257324E2,1.2205383E1,9.091821E1,6.2285815E2,1.2522781E1,1.169429E1,2.666626E1,6.960913E1,2.9494324E1,7.627344E1,0E0,0E0,0E0,0E0,0E0,0E0,0E0,0E0,0E0,0E0,0E0,0E0,0E0,0E0,0E0,0E0,0E0,0E0,0E0,0E0,0E0,0E0],"parents":[2147483647,0,0,1,1,2,2,3,3,4,4,5,5,6,6,7,7,8,8,9,9,10,10,12,12,13,13,15,15,16,16,17,17,18,18,19,19,20,20,21,21,22,22,23,23,24,24],"right_children":[2,4,6,8,10,12,14,16,18,20,22,-1,24,26,-1,28,30,32,34,36,38,40,42,44,46,-1,-1,-1,-1,-1,-1,-1,-1,-1,-1,-1,-1,-1,-1,-1,-1,-1,-1,-1,-1,-1,-1],"split_conditions":[8.682409E-2,5.696528E-1,2.4939102E-1,1.22966975E-1,-1.7101008E-1,5.2869394E-2,4.330127E-1,1.2431524E-1,-1.0959279E-1,7.930634E-1,5.25E-1,-1.4360839E-1,4.997023E-1,4.0372992E-1,1.4147905E-1,-1E-5,-2.4620193E-1,-4.9240386E-1,3.1551662E-1,7.5E1,NaN,1.5844288E-1,5.5364805E-1,1.3781868E-1,5.44668E-1,7.152437E-2,1.1288113E-1,-1.586462E-2,-2.4826175E-1,-7.683158E-2,-4.2981904E-2,-1.8063211E-1,-9.392211E-2,-3.9322108E-2,-1.0183702E-2,1.2802352E-2,-1.883737E-2,-8.1108734E-2,-1.6604222E-2,-8.910589E-3,3.7504E-2,9.073047E-2,5.744618E-2,1.31051345E-2,3.8519684E-2,4.0309705E-2,1.1889221E-1],"split_indices":[7,6,7,6,7,5,7,5,7,6,5,0,6,6,0,3,7,7,6,0,1,5,5,7,5,0,0,0,0,0,0,0,0,0,0,0,0,0,0,0,0,0,0,0,0,0,0],"split_type":[0,0,0,0,0,0,0,0,0,0,0,0,0,0,0,0,0,0,0,0,1,0,0,0,0,0,0,0,0,0,0,0,0,0,0,0,0,0,0,0,0,0,0,0,0,0,0],"sum_hessian":[5.39E2,4.18E2,1.21E2,3.56E2,6.2E1,4.9E1,7.2E1,3.4E1,3.22E2,7E0,5.5E1,1E0,4.8E1,2.6E1,4.6E1,1.4E1,2E1,2.6E1,2.96E2,4E0,3E0,1.2E1,4.3E1,3.6E1,1.2E1,1.4E1,1.2E1,1E0,1.3E1,3E0,1.7E1,2E0,2.4E1,1.36E2,1.6E2,1E0,3E0,2E0,1E0,1E0,1.1E1,2E1,2.3E1,7E0,2.9E1,3E0,9E0],"tree_param":{"num_deleted":"0","num_feature":"8","num_nodes":"47","size_leaf_vector":"1"}},{"base_weights":[-1.8171059E-1,-2.8054945E0,9.046778E0,-4.172471E0,4.499715E0,4.418902E0,1.1965836E1,-1.384898E1,-3.2068686E0,-3.3693979E0,5.6238217E0,-1.4289035E-1,5.120965E0,9.137663E0,1.3335939E-1,-2.3178171E1,-5.3052664E0,-1.1422707E1,-2.4542449E0,-5.4843125E0,-5.806038E-1,2.0172818E0,6.807477E0,3.7642171E0,1.2336065E-1,6.755066E-2,1.1183916E-1,-1.5785294E-2,-2.4608248E-1,-1.38039645E-2,-5.7096004E-2,-1.17393374E-1,-1.5951566E-2,-3.687104E-2,-1.374607E-2,-6.7991406E-2,-2.3413803E-2,-2.750699E-2,6.4959475E-3,-7.7886772E-3,3.359065E-2,9.2070855E-2,5.504186E-2,1.5001169E-2,4.3541163E-2],"categories":[],"categories_nodes":[],"categories_segments":[],"categories_sizes":[],"default_left":[0,1,0,0,0,0,0,1,0,0,0,0,0,0,0,0,0,1,1,1,0,0,0,0,0,0,0,0,0,0,0,0,0,0,0,0,0,0,0,0,0,0,0,0,0],"id":13,"left_children":[1,3,5,7,9,11,13,15,17,19,21,-1,23,25,-1,27,29,31,33,35,37,39,41,43,-1,-1,-1,-1,-1,-1,-1,-1,-1,-1,-1,-1,-1,-1,-1,-1,-1,-1,-1,-1,-1],"loss_changes":[1.3124917E4,4.232887E3,1.568209E3,3.2819312E3,6.116124E2,7.0361304E2,1.6100781E2,2.4276235E3,1.9815823E3,4.989833E1,2.3813257E2,0E0,4.1365076E2,5.608789E1,0E0,4.2449365E2,2.0683746E1,6.529028E1,3.929131E2,4.7427063E0,1.5135079E1,6.2645493E1,8.692749E1,4.822754E1,0E0,0E0,0E0,0E0,0E0,0E0,0E0,0E0,0E0,0E0,0E0,0E0,0E0,0E0,0E0,0E0,0E0,0E0,0E0,0E0,0E0],"parents":[2147483647,0,0,1,1,2,2,3,3,4,4,5,5,6,6,7,7,8,8,9,9,10,10,12,12,13,13,15,15,16,16,17,17,18,18,19,19,20,20,21,21,22,22,23,23],"right_children":[2,4,6,8,10,12,14,16,18,20,22,-1,24,26,-1,28,30,32,34,36,38,40,42,44,-1,-1,-1,-1,-1,-1,-1,-1,-1,-1,-1,-1,-1,-1,-1,-1,-1,-1,-1,-1,-1],"split_conditions":[8.682409E-2,5.486602E-1,2.4939102E-1,1.22966975E-1,-8.550504E-2,5.2869394E-2,4.330127E-1,1.2639733E-1,-1.25E-1,1.21E1,5.3179616E-1,-1.4289035E-1,6.1343145E-1,4.5971978E-1,1.3335939E-1,5.8E1,6.2E1,1.29E1,3.1049463E-1,4.2839137E-1,7.2E1,5.935506E-1,6.7E1,1.3781868E-1,1.2336065E-1,6.755066E-2,1.1183916E-1,-1.5785294E-2,-2.4608248E-1,-1.38039645E-2,-5.7096004E-2,-1.17393374E-1,-1.5951566E-2,-3.687104E-2,-1.374607E-2,-6.7991406E-2,-2.3413803E-2,-2.750699E-2,6.4959475E-3,-7.7886772E-3,3.359065E-2,9.2070855E-2,5.504186E-2,1.5001169E-2,4.3541163E-2],"split_indices":[7,6,7,6,7,5,7,5,7,3,5,0,6,6,0,0,0,3,6,5,0,6,0,7,0,0,0,0,0,0,0,0,0,0,0,0,0,0,0,0,0,0,0,0,0],"split_type":[0,0,0,0,0,0,0,0,0,0,0,0,0,0,0,0,0,0,0,0,0,0,0,0,0,0,0,0,0,0,0,0,0,0,0,0,0,0,0,0,0,0,0,0,0],"sum_hessian":[5.4E2,4.21E2,1.19E2,3.55E2,6.6E1,4.7E1,7.2E1,3.1E1,3.24E2,8E0,5.8E1,1E0,4.6E1,2.6E1,4.6E1,1.4E1,1.7E1,2.6E1,2.98E2,4E0,4E0,1.5E1,4.3E1,4E1,6E0,1.4E1,1.2E1,1E0,1.3E1,2E0,1.5E1,2.5E1,1E0,1.38E2,1.6E2,2E0,2E0,1E0,3E0,5E0,1E1,1.3E1,3E1,9E0,3.1E1],"tree_param":{"num_deleted":"0","num_feature":"8","num_nodes":"45","size_leaf_vector":"1"}},{"base_weights":[-6.674735E-2,-2.3040323E0,1.0413869E1,-3.6399837E0,5.562144E0,7.0072975E0,1.3096085E-1,-1.6299175E1,-2.9673538E0,-2.6889148E0,6.767361E0,4.885218E0,1.041561E1,-2.5163713E-1,-5.804719E0,-1.0692406E1,-2.314768E0,-6.5578275E0,1.7177807E0,2.8135157E0,7.7591977E0,3.6263325E0,6.3664455E0,1.0983438E-1,9.49089E-3,-1.0337982E-2,-6.2199548E-2,-1.2733139E-1,-7.35824E-2,-3.079363E-2,-9.1049325E-4,-7.377078E-2,-1.6404133E-2,2.850395E-2,1.2572606E-4,3.282277E-2,-1.4058103E-2,8.982339E-2,4.7140926E-2,3.8231995E-2,1.3675956E-2,6.667624E-2,1.52674485E-2],"categories":[0],"categories_nodes":[17],"categories_segments":[0],"categories_sizes":[1],"default_left":[0,1,0,0,0,0,0,1,0,0,0,0,1,0,0,0,1,0,0,0,0,0,0,0,0,0,0,0,0,0,0,0,0,0,0,0,0,0,0,0,0,0,0],"id":14,"left_children":[1,3,5,7,9,11,-1,13,15,17,19,21,23,-1,25,27,29,31,33,35,37,39,41,-1,-1,-1,-1,-1,-1,-1,-1,-1,-1,-1,-1,-1,-1,-1,-1,-1,-1,-1,-1],"loss_changes":[1.2662534E4,4.696674E3,7.762637E2,3.19583E3,6.645775E2,2.673567E2,0E0,1.6214736E3,1.8052263E3,1.64707E2,2.0169873E2,3.0989319E1,7.5581665E1,0E0,1.3380402E1,9.682251E1,5.7100183E2,8.041504E0,9.62088E0,3.03264E1,1.2526294E2,2.7754974E0,7.3115845E0,0E0,0E0,0E0,0E0,0E0,0E0,0E0,0E0,0E0,0E0,0E0,0E0,0E0,0E0,0E0,0E0,0E0,0E0,0E0,0E0],"parents":[2147483647,0,0,1,1,2,2,3,3,4,4,5,5,7,7,8,8,9,9,10,10,11,11,12,12,14,14,15,15,16,16,17,17,18,18,19,19,20,20,21,21,22,22],"right_children":[2,4,6,8,10,12,-1,14,16,18,20,22,24,-1,26,28,30,32,34,36,38,40,42,-1,-1,-1,-1,-1,-1,-1,-1,-1,-1,-1,-1,-1,-1,-1,-1,-1,-1,-1,-1],"split_conditions":[1.9151111E-1,5.696528E-1,3.596699E-1,9.886734E-2,-8.550504E-2,4.674253E-1,1.3096085E-1,1.1820161E-1,-1.0959279E-1,5.611234E-1,5.25E-1,2.4863048E-1,1.27E1,-2.5163713E-1,5.5E1,-2.3492315E-1,4.3394035E-1,NaN,7.5E1,7.5E1,7.4E1,7.9E1,4.55E1,1.0983438E-1,9.49089E-3,-1.0337982E-2,-6.2199548E-2,-1.2733139E-1,-7.35824E-2,-3.079363E-2,-9.1049325E-4,-7.377078E-2,-1.6404133E-2,2.850395E-2,1.2572606E-4,3.282277E-2,-1.4058103E-2,8.982339E-2,4.7140926E-2,3.8231995E-2,1.3675956E-2,6.667624E-2,1.52674485E-2],"split_indices":[7,6,7,6,7,6,0,5,7,5,5,7,3,0,0,7,6,1,0,0,0,0,4,0,0,0,0,0,0,0,0,0,0,0,0,0,0,0,0,0,0,0,0],"split_type":[0,0,0,0,0,0,0,0,0,0,0,0,0,0,0,0,0,1,0,0,0,0,0,0,0,0,0,0,0,0,0,0,0,0,0,0,0,0,0,0,0,0,0],"sum_hessian":[5.38E2,4.44E2,9.4E1,3.8E2,6.4E1,4.3E1,5.1E1,1.8E1,3.62E2,8E0,5.6E1,2.8E1,1.5E1,9E0,9E0,2.7E1,3.35E2,4E0,4E0,1.2E1,4.4E1,1.7E1,1.1E1,1.4E1,1E0,1E0,8E0,1.5E1,1.2E1,2.49E2,8.6E1,3E0,1E0,2E0,2E0,1.1E1,1E0,3E1,1.4E1,1.5E1,2E0,1E1,1E0],"tree_param":{"num_deleted":"0","num_feature":"8","num_nodes":"43","size_leaf_vector":"1"}},{"base_weights":[-5.147407E-2,-2.2901347E0,1.0251732E1,-1.5124451E1,-1.249862E0,6.397547E0,1.3300325E1,-2.6082745E-1,-5.1522913E0,-2.533752E0,5.5970116E0,4.682207E0,8.999544E0,8.350443E0,1.3774744E-1,-1.6838163E-2,-5.4806123E0,-9.716558E0,-1.9482088E0,-1.670712E0,6.6845117E0,2.9785505E-2,5.77379E-2,4.9852934E-2,9.922186E-2,1.6936302E-2,9.17764E-2,-7.536063E-2,-4.4265803E-2,-9.992216E-2,-1.5503902E-2,-2.663948E-2,5.0013803E-4,-4.7136106E-2,1.706329E-2,1.813399E-2,7.357103E-2],"categories":[0],"categories_nodes":[13],"categories_segments":[0],"categories_sizes":[1],"default_left":[0,0,0,1,1,0,1,0,0,0,0,0,0,0,0,0,0,1,1,0,0,0,0,0,0,0,0,0,0,0,0,0,0,0,0,0,0],"id":15,"left_children":[1,3,5,7,9,11,13,-1,15,17,19,21,23,25,-1,-1,27,29,31,33,35,-1,-1,-1,-1,-1,-1,-1,-1,-1,-1,-1,-1,-1,-1,-1,-1],"loss_changes":[1.2017476E4,5.6954053E3,1.0076455E3,3.3625063E3,3.5040627E3,1.4978467E2,4.739258E0,0E0,1.1269592E1,1.3900271E3,5.0909753E2,3.4873596E1,9.794434E0,2.3001923E1,0E0,0E0,1.3051758E0,4.0784912E1,4.4492737E2,1.005269E2,1.6685352E2,0E0,0E0,0E0,0E0,0E0,0E0,0E0,0E0,0E0,0E0,0E0,0E0,0E0,0E0,0E0,0E0],"parents":[2147483647,0,0,1,1,2,2,3,3,4,4,5,5,6,6,8,8,9,9,10,10,11,11,12,12,13,13,16,16,17,17,18,18,19,19,20,20],"right_children":[2,4,6,8,10,12,14,-1,16,18,20,22,24,26,-1,-1,28,30,32,34,36,-1,-1,-1,-1,-1,-1,-1,-1,-1,-1,-1,-1,-1,-1,-1,-1],"split_conditions":[1.9151111E-1,1.22966975E-1,4.330127E-1,1.2639733E-1,5.696528E-1,4.5971978E-1,2.4681725E-1,-2.6082745E-1,6E1,-1.0959279E-1,-8.550504E-2,2.4031542E-1,2.0725939E-1,NaN,1.3774744E-1,-1.6838163E-2,-2.4620193E-1,1.29E1,4.3394035E-1,5.420144E-1,4.5301157E-1,2.9785505E-2,5.77379E-2,4.9852934E-2,9.922186E-2,1.6936302E-2,9.17764E-2,-7.536063E-2,-4.4265803E-2,-9.992216E-2,-1.5503902E-2,-2.663948E-2,5.0013803E-4,-4.7136106E-2,1.706329E-2,1.813399E-2,7.357103E-2],"split_indices":[7,6,7,5,6,6,6,0,0,7,7,7,7,2,0,0,7,3,6,5,5,0,0,0,0,0,0,0,0,0,0,0,0,0,0,0,0],"split_type":[0,0,0,0,0,0,0,0,0,0,0,0,0,1,0,0,0,0,0,0,0,0,0,0,0,0,0,0,0,0,0,0,0,0,0,0,0],"sum_hessian":[5.19E2,4.27E2,9.2E1,3.1E1,3.96E2,4.2E1,5E1,1.4E1,1.7E1,3.34E2,6.2E1,2.7E1,1.5E1,6E0,4.4E1,2E0,1.5E1,2.4E1,3.1E2,8E0,5.4E1,1.2E1,1.5E1,4E0,1.1E1,1E0,5E0,3E0,1.2E1,2.3E1,1E0,2.28E2,8.2E1,4E0,4E0,7E0,4.7E1],"tree_param":{"num_deleted":"0","num_feature":"8","num_nodes":"37","size_leaf_vector":"1"}},{"base_weights":[-8.2533605E-2,-2.5043652E0,8.978449E0,-3.6945555E0,4.820431E0,5.014528E0,1.1873037E1,-1.29413595E1,-2.9083128E0,-1.8197601E0,6.052061E0,-1.3961358E-1,5.7007203E0,1.2008001E1,1.6851615E-2,-2.3493052E-1,-4.73185E0,-1.0296789E1,-2.1453156E0,-4.443499E0,1.6926785E0,2.0499122E0,6.880584E0,3.98064E0,1.1838962E-1,9.437905E-2,1.3068336E-1,-1.6494261E-2,-5.0328776E-2,-1.4530584E-1,-8.456491E-2,-3.40216E-2,-1.14787435E-2,-2.3653E-2,-5.7332642E-2,2.8200176E-2,1.1132558E-5,2.5905354E-2,-1.4078483E-2,2.1799635E-2,7.32984E-2,1.0838655E-2,4.4744816E-2],"categories":[],"categories_nodes":[],"categories_segments":[],"categories_sizes":[],"default_left":[0,1,0,0,0,0,0,1,0,0,0,0,0,0,0,0,0,0,1,0,0,0,1,0,0,0,0,0,0,0,0,0,0,0,0,0,0,0,0,0,0,0,0],"id":16,"left_children":[1,3,5,7,9,11,13,15,17,19,21,-1,23,25,-1,-1,27,29,31,33,35,37,39,41,-1,-1,-1,-1,-1,-1,-1,-1,-1,-1,-1,-1,-1,-1,-1,-1,-1,-1,-1],"loss_changes":[1.1652897E4,3.6706099E3,1.225541E3,2.5869165E3,4.9353052E2,7.176244E2,6.776465E1,2.314312E3,1.8607969E3,9.9678635E1,1.5168884E2,0E0,4.596704E2,4.8347656E1,0E0,0E0,7.4729004E0,1.1865698E2,3.77198E2,2.5214462E0,9.531698E0,2.2340542E1,7.060449E1,5.094159E1,0E0,0E0,0E0,0E0,0E0,0E0,0E0,0E0,0E0,0E0,0E0,0E0,0E0,0E0,0E0,0E0,0E0,0E0,0E0],"parents":[2147483647,0,0,1,1,2,2,3,3,4,4,5,5,6,6,7,7,8,8,9,9,10,10,12,12,13,13,16,16,17,17,18,18,19,19,20,20,21,21,22,22,23,23],"right_children":[2,4,6,8,10,12,14,16,18,20,22,-1,24,26,-1,-1,28,30,32,34,36,38,40,42,-1,-1,-1,-1,-1,-1,-1,-1,-1,-1,-1,-1,-1,-1,-1,-1,-1,-1,-1],"split_conditions":[8.682409E-2,5.696528E-1,3.050525E-1,1.22966975E-1,-8.550504E-2,5.2869394E-2,4.712E1,1.2639733E-1,-1.0959279E-1,5.611234E-1,4.5301157E-1,-1.3961358E-1,6.1343145E-1,4.4147378E-1,1.6851615E-2,-2.3493052E-1,6.2E1,-3.8302222E-1,3.1049463E-1,1.16E1,7.5E1,7.5E1,1.16E1,1.3979822E-1,1.1838962E-1,9.437905E-2,1.3068336E-1,-1.6494261E-2,-5.0328776E-2,-1.4530584E-1,-8.456491E-2,-3.40216E-2,-1.14787435E-2,-2.3653E-2,-5.7332642E-2,2.8200176E-2,1.1132558E-5,2.5905354E-2,-1.4078483E-2,2.1799635E-2,7.32984E-2,1.0838655E-2,4.4744816E-2],"split_indices":[7,6,7,6,7,5,4,5,7,5,5,0,6,7,0,0,0,7,6,3,0,0,3,7,0,0,0,0,0,0,0,0,0,0,0,0,0,0,0,0,0,0,0],"split_type":[0,0,0,0,0,0,0,0,0,0,0,0,0,0,0,0,0,0,0,0,0,0,0,0,0,0,0,0,0,0,0,0,0,0,0,0,0,0,0,0,0,0,0],"sum_hessian":[5.29E2,4.18E2,1.11E2,3.6E2,5.8E1,4.8E1,6.3E1,2.7E1,3.33E2,9E0,4.9E1,1E0,4.7E1,6.2E1,1E0,1.1E1,1.6E1,3E1,3.03E2,5E0,4E0,9E0,4E1,3.8E1,9E0,2.1E1,4.1E1,2E0,1.4E1,7E0,2.3E1,1.33E2,1.7E2,3E0,2E0,2E0,2E0,8E0,1E0,4E0,3.6E1,6E0,3.2E1],"tree_param":{"num_deleted":"0","num_feature":"8","num_nodes":"43","size_leaf_vector":"1"}},{"base_weights":[-2.3979214E-1,-2.3200877E0,9.7572775E0,-1.6827862E1,-1.4835562E0,5.9517694E0,1.3121665E-1,-2.5424033E-1,-4.3574743E0,-2.720255E0,5.5479517E0,5.0807343E0,1.0766709E-1,-1.3261191E-2,-4.8837624E0,-9.681111E0,-2.0984156E0,-4.508142E0,6.492583E0,4.195196E0,6.146841E0,-1.3127928E-2,-5.1660344E-2,-1.1411631E-1,-7.011866E-2,-3.3561986E-2,-8.730631E-3,-7.892647E-2,-8.427276E-3,4.0853593E-2,8.320783E-2,4.3892834E-2,1.3087921E-2,6.3609146E-2,1.4678688E-2],"categories":[],"categories_nodes":[],"categories_segments":[],"categories_sizes":[],"default_left":[0,0,0,1,1,0,0,0,0,0,0,0,0,0,0,0,1,0,0,0,0,0,0,0,0,0,0,0,0,0,0,0,0,0,0],"id":17,"left_children":[1,3,5,7,9,11,-1,-1,13,15,17,19,-1,-1,21,23,25,27,29,31,33,-1,-1,-1,-1,-1,-1,-1,-1,-1,-1,-1,-1,-1,-1],"loss_changes":[1.1107364E4,5.33924E3,1.0997988E3,2.461958E3,3.6586558E3,1.3402649E2,0E0,0E0,1.1072571E1,1.5249714E3,6.2772534E2,1.1975952E1,0E0,0E0,2.2899323E0,5.3939453E1,5.0413367E2,6.7782326E1,2.2125806E2,8.260742E0,6.689331E0,0E0,0E0,0E0,0E0,0E0,0E0,0E0,0E0,0E0,0E0,0E0,0E0,0E0,0E0],"parents":[2147483647,0,0,1,1,2,2,3,3,4,4,5,5,8,8,9,9,10,10,11,11,14,14,15,15,16,16,17,17,18,18,19,19,20,20],"right_children":[2,4,6,8,10,12,-1,-1,14,16,18,20,-1,-1,22,24,26,28,30,32,34,-1,-1,-1,-1,-1,-1,-1,-1,-1,-1,-1,-1,-1,-1],"split_conditions":[1.9151111E-1,1.0673253E-1,4.330127E-1,1.2639733E-1,5.696528E-1,6.1343145E-1,1.3121665E-1,-2.5424033E-1,6.2E1,-1.0959279E-1,-1.7101008E-1,2.4939102E-1,1.0766709E-1,-1.3261191E-2,1.6548225E-1,-2.2073689E-1,3.1551662E-1,4.246E1,6.9067407E-1,7.9E1,4.55E1,-1.3127928E-2,-5.1660344E-2,-1.1411631E-1,-7.011866E-2,-3.3561986E-2,-8.730631E-3,-7.892647E-2,-8.427276E-3,4.0853593E-2,8.320783E-2,4.3892834E-2,1.3087921E-2,6.3609146E-2,1.4678688E-2],"split_indices":[7,6,7,5,6,6,0,0,0,7,7,7,0,0,5,7,6,4,6,0,4,0,0,0,0,0,0,0,0,0,0,0,0,0,0],"split_type":[0,0,0,0,0,0,0,0,0,0,0,0,0,0,0,0,0,0,0,0,0,0,0,0,0,0,0,0,0,0,0,0,0,0,0],"sum_hessian":[5.32E2,4.41E2,9.1E1,2.3E1,4.18E2,4.4E1,4.7E1,1.3E1,1E1,3.56E2,6.2E1,3.9E1,5E0,2E0,8E0,2.8E1,3.28E2,5E0,5.7E1,2.4E1,1.5E1,1E0,7E0,1.5E1,1.3E1,1.61E2,1.67E2,2E0,3E0,2.6E1,3.1E1,2.2E1,2E0,1.4E1,1E0],"tree_param":{"num_deleted":"0","num_feature":"8","num_nodes":"35","size_leaf_vector":"1"}},{"base_weights":[7.2706863E-4,-2.5465646E0,9.196876E0,-1.3302991E1,-1.579673E0,5.9349394E0,1.2825367E1,-2.2746916E1,-4.1530046E0,-2.800217E0,5.089183E0,4.361393E0,1.1772592E-1,1.309092E-1,6.1668128E-2,-1.2905798E-2,-2.4007276E-1,-1.7248573E-2,-4.5004785E-2,-1.0872487E1,-2.247916E0,-2.279732E0,6.244486E0,2.2366436E0,5.3295095E-2,-1.7540076E-1,-9.2474736E-2,-3.6350325E-2,-1.0977333E-2,-4.4020027E-2,1.473607E-2,1.944049E-2,7.079937E-2,1.2905843E-2,3.0393042E-2],"categories":[],"categories_nodes":[],"categories_segments":[],"categories_sizes":[],"default_left":[0,0,0,1,1,0,0,1,0,0,0,0,0,0,0,0,0,0,0,0,1,0,0,0,0,0,0,0,0,0,0,0,0,0,0],"id":18,"left_children":[1,3,5,7,9,11,13,15,17,19,21,23,-1,-1,-1,-1,-1,-1,-1,25,27,29,31,33,-1,-1,-1,-1,-1,-1,-1,-1,-1,-1,-1],"loss_changes":[1.2743344E4,4.4095117E3,1.3205195E3,2.9299443E3,3.204986E3,5.365476E2,1.6523438E1,4.287422E2,8.267975E0,1.4557224E3,5.335488E2,9.504407E1,0E0,0E0,0E0,0E0,0E0,0E0,0E0,6.533203E1,4.9378638E2,7.8177246E1,1.7665503E2,9.746086E0,0E0,0E0,0E0,0E0,0E0,0E0,0E0,0E0,0E0,0E0,0E0],"parents":[2147483647,0,0,1,1,2,2,3,3,4,4,5,5,6,6,7,7,8,8,9,9,10,10,11,11,19,19,20,20,21,21,22,22,23,23],"right_children":[2,4,6,8,10,12,14,16,18,20,22,24,-1,-1,-1,-1,-1,-1,-1,26,28,30,32,34,-1,-1,-1,-1,-1,-1,-1,-1,-1,-1,-1],"split_conditions":[8.682409E-2,1.22966975E-1,3.715724E-1,1.2639733E-1,5.696528E-1,5.696528E-1,7.8E1,-1E-5,6.2E1,-1.25E-1,-8.550504E-2,1.970027E-1,1.1772592E-1,1.309092E-1,6.1668128E-2,-1.2905798E-2,-2.4007276E-1,-1.7248573E-2,-4.5004785E-2,-4.9240386E-1,3.1049463E-1,5.611234E-1,4.674253E-1,1.3781868E-1,5.3295095E-2,-1.7540076E-1,-9.2474736E-2,-3.6350325E-2,-1.0977333E-2,-4.4020027E-2,1.473607E-2,1.944049E-2,7.079937E-2,1.2905843E-2,3.0393042E-2],"split_indices":[7,6,7,5,6,6,0,3,0,7,7,7,0,0,0,0,0,0,0,7,6,5,5,7,0,0,0,0,0,0,0,0,0,0,0],"split_type":[0,0,0,0,0,0,0,0,0,0,0,0,0,0,0,0,0,0,0,0,0,0,0,0,0,0,0,0,0,0,0,0,0,0,0],"sum_hessian":[5.42E2,4.25E2,1.17E2,3.4E1,3.91E2,6.3E1,5.4E1,1.6E1,1.8E1,3.31E2,6E1,5.1E1,1.2E1,5.1E1,3E0,1E0,1.5E1,3E0,1.5E1,2E1,3.11E2,8E0,5.2E1,1.7E1,3.4E1,2E0,1.8E1,1.4E2,1.71E2,5E0,3E0,9E0,4.3E1,9E0,8E0],"tree_param":{"num_deleted":"0","num_feature":"8","num_nodes":"35","size_leaf_vector":"1"}},{"base_weights":[-9.239898E-2,-2.3679302E0,9.884095E0,-3.745598E0,5.3703637E0,7.2057667E0,1.2813349E1,-1.2429966E1,-2.7694204E0,-2.614664E0,6.677029E0,6.3072033E0,1.1584106E-1,1.3029394E-1,1.5456715E-2,-2.2273104E1,-4.706322E0,-1.01878805E1,-2.0549786E0,-5.742993E0,1.6622632E0,2.168657E0,7.707973E0,4.5355043E0,8.114338E-2,-1.2841272E-2,-2.3586759E-1,-7.369297E-2,-3.8979944E-2,-1.2039731E-1,-6.561113E-2,-2.8660785E-2,-6.115595E-3,-7.181133E-2,-1.911141E-2,2.7664661E-2,3.9723716E-5,2.6259813E-2,-1.4309558E-2,9.690671E-2,5.953828E-2,2.1483185E-2,5.0015807E-2],"categories":[0],"categories_nodes":[19],"categories_segments":[0],"categories_sizes":[1],"default_left":[0,1,0,0,0,0,0,1,0,0,0,0,0,0,0,0,0,0,1,0,0,0,0,0,0,0,0,0,0,0,0,0,0,0,0,0,0,0,0,0,0,0,0],"id":19,"left_children":[1,3,5,7,9,11,13,15,17,19,21,23,-1,-1,-1,25,27,29,31,33,35,37,39,41,-1,-1,-1,-1,-1,-1,-1,-1,-1,-1,-1,-1,-1,-1,-1,-1,-1,-1,-1],"loss_changes":[1.2100774E4,4.6469023E3,6.84374E2,3.093769E3,7.060863E2,1.3938428E2,9.183984E1,2.7080962E3,1.7439839E3,1.433427E2,2.4821313E2,1.1367737E2,0E0,0E0,0E0,4.1086914E2,1.8630737E1,1.15776855E2,3.5532812E2,1.9340302E1,9.14446E0,2.3511951E1,1.02288574E2,1.8182922E1,0E0,0E0,0E0,0E0,0E0,0E0,0E0,0E0,0E0,0E0,0E0,0E0,0E0,0E0,0E0,0E0,0E0,0E0,0E0],"parents":[2147483647,0,0,1,1,2,2,3,3,4,4,5,5,6,6,7,7,8,8,9,9,10,10,11,11,15,15,16,16,17,17,18,18,19,19,20,20,21,21,22,22,23,23],"right_children":[2,4,6,8,10,12,14,16,18,20,22,24,-1,-1,-1,26,28,30,32,34,36,38,40,42,-1,-1,-1,-1,-1,-1,-1,-1,-1,-1,-1,-1,-1,-1,-1,-1,-1,-1,-1],"split_conditions":[1.7364818E-1,5.696528E-1,4.4147378E-1,1.22966975E-1,-8.550504E-2,6.1343145E-1,4.668E1,1.2431524E-1,-1.0959279E-1,5.611234E-1,5.25E-1,2.9389262E-1,1.1584106E-1,1.3029394E-1,1.5456715E-2,5.8E1,-2.4620193E-1,-2.3492315E-1,3.7587705E-1,NaN,7.5E1,7.5E1,6.7E1,3.2678846E-1,8.114338E-2,-1.2841272E-2,-2.3586759E-1,-7.369297E-2,-3.8979944E-2,-1.2039731E-1,-6.561113E-2,-2.8660785E-2,-6.115595E-3,-7.181133E-2,-1.911141E-2,2.7664661E-2,3.9723716E-5,2.6259813E-2,-1.4309558E-2,9.690671E-2,5.953828E-2,2.1483185E-2,5.0015807E-2],"split_indices":[7,6,7,6,7,6,4,5,7,5,5,7,0,0,0,0,7,7,6,1,0,0,0,5,0,0,0,0,0,0,0,0,0,0,0,0,0,0,0,0,0,0,0],"split_type":[0,0,0,0,0,0,0,0,0,0,0,0,0,0,0,0,0,0,0,1,0,0,0,0,0,0,0,0,0,0,0,0,0,0,0,0,0,0,0,0,0,0,0],"sum_hessian":[5.31E2,4.33E2,9.8E1,3.68E2,6.5E1,5.3E1,4.5E1,3.6E1,3.32E2,9E0,5.6E1,4.6E1,7E0,4.4E1,1E0,1.5E1,2.1E1,2.8E1,3.04E2,5E0,4E0,1.1E1,4.5E1,2.5E1,2.1E1,1E0,1.4E1,3E0,1.8E1,1.7E1,1.1E1,1.94E2,1.1E2,3E0,2E0,2E0,2E0,1E1,1E0,1.9E1,2.6E1,5E0,2E1],"tree_param":{"num_deleted":"0","num_feature":"8","num_nodes":"43","size_leaf_vector":"1"}},{"base_weights":[9.767531E-2,-2.2113194E0,1.0086616E1,-1.4077872E1,-1.3044641E0,6.7502728E0,1.2680112E-1,-2.3418385E1,-4.441275E0,-2.513416E0,3.803024E0,5.634064E0,1.12084806E-1,-9.87046E0,-2.4743414E-1,-1.6826859E-2,-4.9484354E-2,-8.798298E0,-2.0425773E0,-3.0776656E0,5.014797E0,4.4628844E0,6.9655056E0,-1.3527983E-1,-1.2777061E-2,-1.1771507E-2,-9.105154E-2,-3.1266823E-2,-1.0015258E-2,-4.3736883E-2,2.2682978E-2,6.7202654E-3,5.9853863E-2,3.452008E-2,5.651802E-2,7.203223E-2,1.699875E-2],"categories":[],"categories_nodes":[],"categories_segments":[],"categories_sizes":[],"default_left":[0,0,0,1,1,0,0,0,0,0,0,0,0,0,0,0,0,0,1,1,0,0,0,0,0,0,0,0,0,0,0,0,0,0,0,0,0],"id":20,"left_children":[1,3,5,7,9,11,-1,13,15,17,19,21,-1,23,-1,-1,-1,25,27,29,31,33,35,-1,-1,-1,-1,-1,-1,-1,-1,-1,-1,-1,-1,-1,-1],"loss_changes":[1.2038862E4,4.5444053E3,7.623799E2,2.596315E3,2.4485684E3,1.6078369E2,0E0,2.5042969E1,1.4058105E1,9.2896204E2,6.4910925E2,2.8169312E1,0E0,7.699985E1,0E0,0E0,0E0,4.0730957E1,3.3432275E2,9.306271E1,2.699557E2,8.132477E0,7.783142E0,0E0,0E0,0E0,0E0,0E0,0E0,0E0,0E0,0E0,0E0,0E0,0E0,0E0,0E0],"parents":[2147483647,0,0,1,1,2,2,3,3,4,4,5,5,7,7,8,8,9,9,10,10,11,11,13,13,17,17,18,18,19,19,20,20,21,21,22,22],"right_children":[2,4,6,8,10,12,-1,14,16,18,20,22,-1,24,-1,-1,-1,26,28,30,32,34,36,-1,-1,-1,-1,-1,-1,-1,-1,-1,-1,-1,-1,-1,-1],"split_conditions":[1.9151111E-1,1.22966975E-1,3.715724E-1,1.2639733E-1,5.386846E-1,6.1343145E-1,1.2680112E-1,5.8E1,6.2E1,-1.0959279E-1,-8.550504E-2,2.4939102E-1,1.12084806E-1,5.6E1,-2.4743414E-1,-1.6826859E-2,-4.9484354E-2,5.6E1,3.1049463E-1,5.611234E-1,4.5301157E-1,5.420144E-1,5.0008535E-1,-1.3527983E-1,-1.2777061E-2,-1.1771507E-2,-9.105154E-2,-3.1266823E-2,-1.0015258E-2,-4.3736883E-2,2.2682978E-2,6.7202654E-3,5.9853863E-2,3.452008E-2,5.651802E-2,7.203223E-2,1.699875E-2],"split_indices":[7,6,7,5,6,6,0,0,0,7,7,7,0,0,0,0,0,0,6,5,5,5,6,0,0,0,0,0,0,0,0,0,0,0,0,0,0],"split_type":[0,0,0,0,0,0,0,0,0,0,0,0,0,0,0,0,0,0,0,0,0,0,0,0,0,0,0,0,0,0,0,0,0,0,0,0,0],"sum_hessian":[5.2E2,4.23E2,9.7E1,2.9E1,3.94E2,4.4E1,5.3E1,1.4E1,1.5E1,3.19E2,7.5E1,3.7E1,7E0,2E0,1.2E1,3E0,1.2E1,2.1E1,2.98E2,1.1E1,6.4E1,2.2E1,1.5E1,1E0,1E0,1E0,2E1,1.45E2,1.53E2,9E0,2E0,1.2E1,5.2E1,1.4E1,8E0,1.4E1,1E0],"tree_param":{"num_deleted":"0","num_feature":"8","num_nodes":"37","size_leaf_vector":"1"}},{"base_weights":[1.4220996E-1,-2.010388E0,1.0507685E1,-3.4102902E0,4.6714816E0,7.3185797E0,1.2615316E1,-1.619692E1,-2.743272E0,-1.7421554E0,5.6006203E0,5.888131E0,1.176794E-1,8.033701E0,1.3161626E1,-2.3745376E-1,-4.7367363E0,-1.0078596E1,-1.978693E0,-4.2865953E0,1.6596035E0,1.625532E0,6.78431E0,6.038032E0,7.7050016E-3,1.4745425E-2,8.760074E-2,5.43786E-2,1.3399951E-1,-9.340572E-3,-5.1465392E-2,-1.22404836E-1,-6.956549E-2,-2.3278287E-2,2.7872983E-2,-2.2479137E-2,-5.575972E-2,2.7550418E-2,1.0964076E-4,2.2332996E-2,-1.7525615E-2,4.921655E-2,8.242748E-2,4.7386605E-2,7.091739E-2],"categories":[0],"categories_nodes":[13],"categories_segments":[0],"categories_sizes":[1],"default_left":[0,1,0,0,0,0,1,1,0,0,0,0,0,0,0,0,0,0,0,0,0,0,0,0,0,0,0,0,0,0,0,0,0,0,0,0,0,0,0,0,0,0,0,0,0],"id":21,"left_children":[1,3,5,7,9,11,13,15,17,19,21,23,-1,25,27,-1,29,31,33,35,37,39,41,43,-1,-1,-1,-1,-1,-1,-1,-1,-1,-1,-1,-1,-1,-1,-1,-1,-1,-1,-1,-1,-1],"loss_changes":[1.1289039E4,3.9352417E3,4.924414E2,2.9151006E3,4.4477576E2,1.6619849E2,2.1915527E1,1.3581382E3,1.836449E3,9.366976E1,2.9010913E2,1.8361938E1,0E0,2.519812E1,8.126953E0,0E0,7.6596375E0,1.24083496E2,5.0734558E2,3.2374802E0,8.999707E0,3.6763542E1,9.254419E1,6.1002197E0,0E0,0E0,0E0,0E0,0E0,0E0,0E0,0E0,0E0,0E0,0E0,0E0,0E0,0E0,0E0,0E0,0E0,0E0,0E0,0E0,0E0],"parents":[2147483647,0,0,1,1,2,2,3,3,4,4,5,5,6,6,7,7,8,8,9,9,10,10,11,11,13,13,14,14,16,16,17,17,18,18,19,19,20,20,21,21,22,22,23,23],"right_children":[2,4,6,8,10,12,14,16,18,20,22,24,-1,26,28,-1,30,32,34,36,38,40,42,44,-1,-1,-1,-1,-1,-1,-1,-1,-1,-1,-1,-1,-1,-1,-1,-1,-1,-1,-1,-1,-1],"split_conditions":[2.1650635E-1,5.49665E-1,4.330127E-1,1.0362969E-1,-8.550504E-2,5.569323E-1,2.4681725E-1,1.2639733E-1,-1.0959279E-1,5.611234E-1,4.901827E-1,1.28E1,1.176794E-1,NaN,1.16E1,-2.3745376E-1,6.2E1,-2.3492315E-1,8.682409E-2,1.16E1,7.5E1,7.5E1,6.9067407E-1,2.9389262E-1,7.7050016E-3,1.4745425E-2,8.760074E-2,5.43786E-2,1.3399951E-1,-9.340572E-3,-5.1465392E-2,-1.22404836E-1,-6.956549E-2,-2.3278287E-2,2.7872983E-2,-2.2479137E-2,-5.575972E-2,2.7550418E-2,1.0964076E-4,2.2332996E-2,-1.7525615E-2,4.921655E-2,8.242748E-2,4.7386605E-2,7.091739E-2],"split_indices":[7,6,7,6,7,6,6,5,7,5,5,3,0,2,3,0,0,7,7,3,0,0,6,7,0,0,0,0,0,0,0,0,0,0,0,0,0,0,0,0,0,0,0,0,0],"split_type":[0,0,0,0,0,0,0,0,0,0,0,0,0,1,0,0,0,0,0,0,0,0,0,0,0,0,0,0,0,0,0,0,0,0,0,0,0,0,0,0,0,0,0,0,0],"sum_hessian":[5.04E2,4.18E2,8.6E1,3.46E2,7.2E1,3.6E1,5E1,1.6E1,3.3E2,9E0,6.3E1,2.9E1,7E0,7E0,4.3E1,9E0,7E0,3E1,3E2,5E0,4E0,1.5E1,4.8E1,2.8E1,1E0,1E0,6E0,2E0,4.1E1,1E0,6E0,1.6E1,1.4E1,2.8E2,2E1,3E0,2E0,2E0,2E0,1.3E1,2E0,2.3E1,2.5E1,1.5E1,1.3E1],"tree_param":{"num_deleted":"0","num_feature":"8","num_nodes":"45","size_leaf_vector":"1"}},{"base_weights":[1.0477365E-2,-2.118984E0,9.985212E0,-3.604943E0,6.030661E0,6.527297E0,1.2966791E1,-1.2930138E1,-2.6128027E0,-4.1999793E-1,6.7657356E0,5.085707E0,8.687321E0,5.4016072E-2,1.3169473E-1,-2.1981709E1,-4.5897965E0,-9.503949E0,-1.943962E0,-2.900671E-2,1.6485401E0,5.1098943E0,8.861904E0,2.9855912E0,6.1444268E-2,8.929895E-2,2.4030665E-2,-2.4114896E-1,-1.2039079E-1,-7.238315E-2,-3.696627E-2,-1.3408452E-1,-7.474654E-2,-2.5610108E-2,1.1977421E-3,2.7366752E-2,1.0891596E-4,7.048579E-2,3.8973823E-2,4.1633133E-2,9.7823635E-2,3.2271277E-2,1.1852722E-2],"categories":[],"categories_nodes":[],"categories_segments":[],"categories_sizes":[],"default_left":[0,1,0,0,0,0,0,1,0,0,0,0,0,0,0,0,0,0,1,0,0,0,0,0,0,0,0,0,0,0,0,0,0,0,0,0,0,0,0,0,0,0,0],"id":22,"left_children":[1,3,5,7,9,11,13,15,17,19,21,23,25,-1,-1,27,29,31,33,-1,35,37,39,41,-1,-1,-1,-1,-1,-1,-1,-1,-1,-1,-1,-1,-1,-1,-1,-1,-1,-1,-1],"loss_changes":[1.1469958E4,5.4107065E3,8.948164E2,3.4541826E3,3.3001953E2,9.9056885E1,5.5302734E0,2.6168623E3,1.5578303E3,4.583281E1,1.6991357E2,4.8358337E1,4.4556885E0,0E0,0E0,7.0240234E1,2.0554108E1,1.3747803E2,3.9888916E2,0E0,8.88011E0,5.950409E1,7.171936E1,1.3930893E0,0E0,0E0,0E0,0E0,0E0,0E0,0E0,0E0,0E0,0E0,0E0,0E0,0E0,0E0,0E0,0E0,0E0,0E0,0E0],"parents":[2147483647,0,0,1,1,2,2,3,3,4,4,5,5,6,6,7,7,8,8,9,9,10,10,11,11,12,12,15,15,16,16,17,17,18,18,20,20,21,21,22,22,23,23],"right_children":[2,4,6,8,10,12,14,16,18,20,22,24,26,-1,-1,28,30,32,34,-1,36,38,40,42,-1,-1,-1,-1,-1,-1,-1,-1,-1,-1,-1,-1,-1,-1,-1,-1,-1,-1,-1],"split_conditions":[1.9151111E-1,5.696528E-1,4.330127E-1,1.22966975E-1,-8.550504E-2,4.5971978E-1,1.16E1,1.2639733E-1,-1.2096095E-1,5.611234E-1,8.654614E-1,2.4031542E-1,4.564E1,5.4016072E-2,1.3169473E-1,9.886734E-2,-2.4620193E-1,-3.8302222E-1,4.4256225E-1,-2.900671E-2,7.5E1,6.5E1,6.1343145E-1,7.9E1,6.1444268E-2,8.929895E-2,2.4030665E-2,-2.4114896E-1,-1.2039079E-1,-7.238315E-2,-3.696627E-2,-1.3408452E-1,-7.474654E-2,-2.5610108E-2,1.1977421E-3,2.7366752E-2,1.0891596E-4,7.048579E-2,3.8973823E-2,4.1633133E-2,9.7823635E-2,3.2271277E-2,1.1852722E-2],"split_indices":[7,6,7,6,7,6,3,5,7,5,5,7,4,0,0,6,7,7,6,0,0,0,6,0,0,0,0,0,0,0,0,0,0,0,0,0,0,0,0,0,0,0,0],"split_type":[0,0,0,0,0,0,0,0,0,0,0,0,0,0,0,0,0,0,0,0,0,0,0,0,0,0,0,0,0,0,0,0,0,0,0,0,0,0,0,0,0,0,0],"sum_hessian":[5.38E2,4.44E2,9.4E1,3.76E2,6.8E1,4.5E1,4.9E1,3.5E1,3.41E2,7E0,6.1E1,2.9E1,1.6E1,2E0,4.7E1,1.6E1,1.9E1,2.9E1,3.12E2,3E0,4E0,3.6E1,2.5E1,1.1E1,1.8E1,1.5E1,1E0,1.2E1,4E0,3E0,1.6E1,8E0,2.1E1,2.4E2,7.2E1,2E0,2E0,1.2E1,2.4E1,5E0,2E1,9E0,2E0],"tree_param":{"num_deleted":"0","num_feature":"8","num_nodes":"43","size_leaf_vector":"1"}},{"base_weights":[8.059848E-2,-2.142686E0,9.469415E0,-3.5399594E0,4.721581E0,4.613433E0,1.1220802E1,-1.3090195E1,-2.6059792E0,-3.0133612E0,5.9772496E0,3.5627801E0,6.926049E0,9.020016E0,1.2825844E-1,-2.1566314E-1,-4.342659E0,-9.792543E0,-1.9354864E0,-6.287062E0,-2.4452345E-1,1.6761354E0,7.2597103E0,3.7424526E0,1.1773706E-2,7.7091994E0,7.219982E-3,7.2669797E0,1.11305006E-1,-1.5685324E-2,-4.6079736E-2,-1.2717001E-1,-7.152188E-2,-2.7912738E-2,-5.2445815E-3,-7.624103E-2,-4.69449E-3,-2.709578E-2,2.2816619E-2,5.9510022E-3,3.935393E-2,4.5369513E-2,8.219187E-2,3.860452E-2,7.5023267E-3,2.6580313E-2,9.198061E-2,7.41739E-2,2.054184E-2],"categories":[],"categories_nodes":[],"categories_segments":[],"categories_sizes":[],"default_left":[0,1,0,0,0,0,0,1,0,0,0,0,1,1,0,0,0,0,1,0,0,0,0,0,0,0,0,1,0,0,0,0,0,0,0,0,0,0,0,0,0,0,0,0,0,0,0,0,0],"id":23,"left_children":[1,3,5,7,9,11,13,15,17,19,21,23,25,27,-1,-1,29,31,33,35,37,39,41,43,-1,45,-1,47,-1,-1,-1,-1,-1,-1,-1,-1,-1,-1,-1,-1,-1,-1,-1,-1,-1,-1,-1,-1,-1],"loss_changes":[1.1229633E4,4.188912E3,8.242178E2,3.1948296E3,7.367383E2,4.5786926E1,1.492373E2,2.2789902E3,1.5759832E3,9.817048E1,3.4085645E2,5.0227966E0,3.330365E1,4.8606445E1,0E0,0E0,5.284546E0,1.2525049E2,3.656283E2,3.531282E1,4.9772636E1,3.673543E1,9.071875E1,4.1653748E0,0E0,2.8194672E1,0E0,2.0125732E0,0E0,0E0,0E0,0E0,0E0,0E0,0E0,0E0,0E0,0E0,0E0,0E0,0E0,0E0,0E0,0E0,0E0,0E0,0E0,0E0,0E0],"parents":[2147483647,0,0,1,1,2,2,3,3,4,4,5,5,6,6,7,7,8,8,9,9,10,10,11,11,12,12,13,13,16,16,17,17,18,18,19,19,20,20,21,21,22,22,23,23,25,25,27,27],"right_children":[2,4,6,8,10,12,14,16,18,20,22,24,26,28,-1,-1,30,32,34,36,38,40,42,44,-1,46,-1,48,-1,-1,-1,-1,-1,-1,-1,-1,-1,-1,-1,-1,-1,-1,-1,-1,-1,-1,-1,-1,-1],"split_conditions":[1.9151111E-1,5.486602E-1,2.4939102E-1,1.22966975E-1,-8.550504E-2,4.997023E-1,4.698463E-1,1.2639733E-1,-1.0959279E-1,-3.596699E-1,5.3179616E-1,7.9E1,1.24E1,4.5971978E-1,1.2825844E-1,-2.1566314E-1,6E1,-2.4939102E-1,3.7587705E-1,7.7E1,5.420144E-1,6.9067407E-1,6.1343145E-1,4.8470455E-1,1.1773706E-2,4.2295516E-1,7.219982E-3,4.1974413E-1,1.11305006E-1,-1.5685324E-2,-4.6079736E-2,-1.2717001E-1,-7.152188E-2,-2.7912738E-2,-5.2445815E-3,-7.624103E-2,-4.69449E-3,-2.709578E-2,2.2816619E-2,5.9510022E-3,3.935393E-2,4.5369513E-2,8.219187E-2,3.860452E-2,7.5023267E-3,2.6580313E-2,9.198061E-2,7.41739E-2,2.054184E-2],"split_indices":[7,6,7,6,7,6,7,5,7,7,5,0,3,6,0,0,0,7,6,0,5,6,6,6,0,5,0,6,0,0,0,0,0,0,0,0,0,0,0,0,0,0,0,0,0,0,0,0,0],"split_type":[0,0,0,0,0,0,0,0,0,0,0,0,0,0,0,0,0,0,0,0,0,0,0,0,0,0,0,0,0,0,0,0,0,0,0,0,0,0,0,0,0,0,0,0,0,0,0,0,0],"sum_hessian":[5.36E2,4.34E2,1.02E2,3.61E2,7.3E1,2.8E1,7.4E1,3.1E1,3.3E2,1E1,6.3E1,2.1E1,7E0,3.4E1,4E1,1.5E1,1.6E1,2.7E1,3.03E2,4E0,6E0,1.5E1,4.8E1,1.9E1,2E0,6E0,1E0,2.1E1,1.3E1,2E0,1.4E1,1.1E1,1.6E1,1.88E2,1.15E2,3E0,1E0,3E0,3E0,1.1E1,4E0,1.4E1,3.4E1,1.8E1,1E0,2E0,4E0,2E1,1E0],"tree_param":{"num_deleted":"0","num_feature":"8","num_nodes":"49","size_leaf_vector":"1"}},{"base_weights":[-1.223915E-1,-2.2798603E0,9.633424E0,-1.4432069E1,-1.3534812E0,6.641579E0,1.2133415E-1,-2.2679985E-1,-4.6721554E0,-2.471953E0,4.8294697E0,5.3050995E0,1.13980435E-1,-7.1494676E-2,-3.4570382E0,-8.415255E0,-1.8831223E0,-2.1707008E0,5.927056E0,3.9076505E0,6.423332E0,-3.7833113E-2,-1.2171147E-2,-1.05361395E-1,-6.1736293E-2,-3.1068122E-2,-7.0947274E-3,-4.2101443E-2,1.4311399E-2,2.5080938E-2,6.975516E-2,2.2012843E-2,4.359832E-2,2.3996849E-2,6.755544E-2],"categories":[],"categories_nodes":[],"categories_segments":[],"categories_sizes":[],"default_left":[0,0,0,1,1,0,0,0,0,0,0,0,0,0,0,0,1,0,0,0,0,0,0,0,0,0,0,0,0,0,0,0,0,0,0],"id":24,"left_children":[1,3,5,7,9,11,-1,-1,13,15,17,19,-1,-1,21,23,25,27,29,31,33,-1,-1,-1,-1,-1,-1,-1,-1,-1,-1,-1,-1,-1,-1],"loss_changes":[1.0924758E4,4.764927E3,6.224961E2,2.3090044E3,2.750459E3,2.255935E2,0E0,0E0,2.0437378E1,1.1600183E3,4.815465E2,3.271875E1,0E0,0E0,4.165207E0,7.758081E1,4.3870386E2,7.213707E1,1.7249109E2,5.0629272E0,9.186157E0,0E0,0E0,0E0,0E0,0E0,0E0,0E0,0E0,0E0,0E0,0E0,0E0,0E0,0E0],"parents":[2147483647,0,0,1,1,2,2,3,3,4,4,5,5,8,8,9,9,10,10,11,11,14,14,15,15,16,16,17,17,18,18,19,19,20,20],"right_children":[2,4,6,8,10,12,-1,-1,14,16,18,20,-1,-1,22,24,26,28,30,32,34,-1,-1,-1,-1,-1,-1,-1,-1,-1,-1,-1,-1,-1,-1],"split_conditions":[1.970027E-1,1.0673253E-1,4.330127E-1,1.2639733E-1,5.696528E-1,5.696528E-1,1.2133415E-1,-2.2679985E-1,-2.4620193E-1,-7.725425E-2,-8.550504E-2,2.4863048E-1,1.13980435E-1,-7.1494676E-2,4.587E1,-2.3492315E-1,3.1551662E-1,5.611234E-1,5.25E-1,4.352E1,4.186E1,-3.7833113E-2,-1.2171147E-2,-1.05361395E-1,-6.1736293E-2,-3.1068122E-2,-7.0947274E-3,-4.2101443E-2,1.4311399E-2,2.5080938E-2,6.975516E-2,2.2012843E-2,4.359832E-2,2.3996849E-2,6.755544E-2],"split_indices":[7,6,7,5,6,6,0,0,7,7,7,7,0,0,4,7,6,5,5,4,4,0,0,0,0,0,0,0,0,0,0,0,0,0,0],"split_type":[0,0,0,0,0,0,0,0,0,0,0,0,0,0,0,0,0,0,0,0,0,0,0,0,0,0,0,0,0,0,0,0,0,0,0],"sum_hessian":[5.17E2,4.24E2,9.3E1,2.9E1,3.95E2,4.4E1,4.9E1,1.5E1,1.4E1,3.35E2,6E1,3.6E1,8E0,3E0,1.1E1,2.9E1,3.06E2,8E0,5.2E1,1.8E1,1.8E1,9E0,2E0,1.3E1,1.6E1,1.49E2,1.57E2,5E0,3E0,1.3E1,3.9E1,5E0,1.3E1,2E0,1.6E1],"tree_param":{"num_deleted":"0","num_feature":"8","num_nodes":"35","size_leaf_vector":"1"}},{"base_weights":[3.6383203E-1,-2.166052E0,8.368947E0,-3.3415534E0,3.8689475E0,4.021055E0,1.087307E1,-1.2672596E1,-2.7441874E0,-2.21509E0,4.994938E0,-1.3077442E-1,4.6630964E0,7.8130093E0,1.20450065E-1,-2.0658085E-1,-4.2610054E0,-9.44601E0,-2.1401205E0,-3.4440145E0,2.2100468E0,1.712863E0,6.15392E0,3.284801E0,1.09716855E-1,5.6906804E-2,9.637974E-2,-9.317226E-3,-4.5007613E-2,-9.727694E-2,-1.2019434E-2,-3.3373233E-2,-1.0378574E-2,-4.5682948E-2,-8.965902E-3,2.8479556E-2,4.6711443E-3,2.3356073E-2,-1.764232E-2,2.512452E-2,6.829738E-2,1.4378455E-2,3.701607E-2],"categories":[],"categories_nodes":[],"categories_segments":[],"categories_sizes":[],"default_left":[0,1,0,0,0,0,0,1,0,1,0,0,0,0,0,0,0,1,1,0,0,0,0,0,0,0,0,0,0,0,0,0,0,0,0,0,0,0,0,0,0,0,0],"id":25,"left_children":[1,3,5,7,9,11,13,15,17,19,21,-1,23,25,-1,-1,27,29,31,33,35,37,39,41,-1,-1,-1,-1,-1,-1,-1,-1,-1,-1,-1,-1,-1,-1,-1,-1,-1,-1,-1],"loss_changes":[1.071119E4,2.8647764E3,1.3390117E3,1.843678E3,4.6320184E2,5.879226E2,1.9278809E2,1.2553892E3,1.2671594E3,6.743118E1,2.0247559E2,0E0,3.7262988E2,4.198291E1,0E0,0E0,4.586914E0,4.868579E1,3.8318872E2,2.1680275E1,2.0051746E0,3.8766026E1,8.374036E1,2.547055E1,0E0,0E0,0E0,0E0,0E0,0E0,0E0,0E0,0E0,0E0,0E0,0E0,0E0,0E0,0E0,0E0,0E0,0E0,0E0],"parents":[2147483647,0,0,1,1,2,2,3,3,4,4,5,5,6,6,7,7,8,8,9,9,10,10,12,12,13,13,16,16,17,17,18,18,19,19,20,20,21,21,22,22,23,23],"right_children":[2,4,6,8,10,12,14,16,18,20,22,-1,24,26,-1,-1,28,30,32,34,36,38,40,42,-1,-1,-1,-1,-1,-1,-1,-1,-1,-1,-1,-1,-1,-1,-1,-1,-1,-1,-1],"split_conditions":[8.682409E-2,5.49665E-1,2.4939102E-1,1.0673253E-1,-8.550504E-2,5.2869394E-2,4.330127E-1,1.2639733E-1,-1.0959279E-1,5.611234E-1,5.25E-1,-1.3077442E-1,6.1343145E-1,4.5971978E-1,1.20450065E-1,-2.0658085E-1,5.5E1,1.29E1,3.2E-1,1.21E1,6.3E1,7.5E1,5.896406E-1,1.3781868E-1,1.09716855E-1,5.6906804E-2,9.637974E-2,-9.317226E-3,-4.5007613E-2,-9.727694E-2,-1.2019434E-2,-3.3373233E-2,-1.0378574E-2,-4.5682948E-2,-8.965902E-3,2.8479556E-2,4.6711443E-3,2.3356073E-2,-1.764232E-2,2.512452E-2,6.829738E-2,1.4378455E-2,3.701607E-2],"split_indices":[7,6,7,6,7,5,7,5,7,5,5,0,6,6,0,0,0,3,6,3,0,0,6,7,0,0,0,0,0,0,0,0,0,0,0,0,0,0,0,0,0,0,0],"split_type":[0,0,0,0,0,0,0,0,0,0,0,0,0,0,0,0,0,0,0,0,0,0,0,0,0,0,0,0,0,0,0,0,0,0,0,0,0,0,0,0,0,0,0],"sum_hessian":[5.27E2,4.01E2,1.26E2,3.36E2,6.5E1,4.7E1,7.9E1,1.9E1,3.17E2,1E1,5.5E1,1E0,4.6E1,2.4E1,5.5E1,9E0,1E1,2.5E1,2.92E2,8E0,2E0,1.5E1,4E1,3.9E1,7E0,1.3E1,1.1E1,1E0,9E0,2.4E1,1E0,1.39E2,1.53E2,5E0,3E0,1E0,1E0,1.3E1,2E0,7E0,3.3E1,8E0,3.1E1],"tree_param":{"num_deleted":"0","num_feature":"8","num_nodes":"43","size_leaf_vector":"1"}},{"base_weights":[-1.643524E-2,-2.1301813E0,9.451556E0,-1.377908E1,-1.3155426E0,6.4675765E0,1.14674784E-1,-2.2044301E-1,-3.9392655E0,-2.496965E0,5.1000214E0,4.7731752E0,9.749888E0,-1.7100167E-2,-4.6599634E-2,-9.340447E0,-1.8787658E0,-1.8272641E0,5.998562E0,3.0230227E0,5.830752E-2,2.3374537E-2,1.0172804E-1,-9.597802E-2,-1.1959333E-2,-3.1057328E-2,-8.076655E-3,-4.3480176E-2,1.7804937E-2,8.375615E-2,4.6521775E-2,3.133439E-2,8.490124E-3],"categories":[],"categories_nodes":[],"categories_segments":[],"categories_sizes":[],"default_left":[0,0,0,1,1,0,0,0,0,0,0,0,0,0,0,1,1,0,1,0,0,0,0,0,0,0,0,0,0,0,0,0,0],"id":26,"left_children":[1,3,5,7,9,11,-1,-1,13,15,17,19,21,-1,-1,23,25,27,29,31,-1,-1,-1,-1,-1,-1,-1,-1,-1,-1,-1,-1,-1],"loss_changes":[1.0526923E4,4.0624202E3,5.0331934E2,2.190353E3,3.0672693E3,1.8148584E2,0E0,0E0,1.4524002E1,1.4250977E3,4.0310107E2,3.6050293E1,1.6974487E1,0E0,0E0,4.7210693E1,4.1015198E2,8.0495766E1,1.4025891E2,4.6028137E-1,0E0,0E0,0E0,0E0,0E0,0E0,0E0,0E0,0E0,0E0,0E0,0E0,0E0],"parents":[2147483647,0,0,1,1,2,2,3,3,4,4,5,5,8,8,9,9,10,10,11,11,12,12,15,15,16,16,17,17,18,18,19,19],"right_children":[2,4,6,8,10,12,-1,-1,14,16,18,20,22,-1,-1,24,26,28,30,32,-1,-1,-1,-1,-1,-1,-1,-1,-1,-1,-1,-1,-1],"split_conditions":[1.9151111E-1,1.0673253E-1,3.596699E-1,1.2431524E-1,5.696528E-1,4.674253E-1,1.14674784E-1,-2.2044301E-1,6.7E1,-1.0959279E-1,-8.550504E-2,2.4031542E-1,3.620085E-1,-1.7100167E-2,-4.6599634E-2,1.29E1,3.1049463E-1,5.611234E-1,-1E-5,7.9E1,5.830752E-2,2.3374537E-2,1.0172804E-1,-9.597802E-2,-1.1959333E-2,-3.1057328E-2,-8.076655E-3,-4.3480176E-2,1.7804937E-2,8.375615E-2,4.6521775E-2,3.133439E-2,8.490124E-3],"split_indices":[7,6,7,5,6,6,0,0,0,7,7,7,5,0,0,3,6,5,5,0,0,0,0,0,0,0,0,0,0,0,0,0,0],"split_type":[0,0,0,0,0,0,0,0,0,0,0,0,0,0,0,0,0,0,0,0,0,0,0,0,0,0,0,0,0,0,0,0,0],"sum_hessian":[5.24E2,4.29E2,9.5E1,2.7E1,4.02E2,4E1,5.5E1,1.4E1,1.3E1,3.4E2,6.2E1,2.8E1,1.2E1,4E0,9E0,2.7E1,3.13E2,7E0,5.5E1,1.2E1,1.6E1,1E0,1.1E1,2.6E1,1E0,1.45E2,1.68E2,4E0,3E0,1.8E1,3.7E1,1.1E1,1E0],"tree_param":{"num_deleted":"0","num_feature":"8","num_nodes":"33","size_leaf_vector":"1"}},{"base_weights":[3.9271466E-3,-2.256112E0,8.339082E0,-1.5009796E1,-1.4425381E0,-1.2901834E-1,8.655218E0,-2.3073485E-1,-5.0233164E0,-2.5819542E0,5.175557E0,6.2385573E0,1.14377575E1,-7.02714E-2,-3.5745822E-2,-8.939503E0,-2.066462E0,3.8836342E-3,5.79608E0,4.6999073E0,1.2001499E-1,1.1627754E-1,1.158966E-2,-9.224702E-2,-1.1899537E-2,-2.7083145E-2,5.092368E-4,-2.6510429E-2,1.5960628E-2,4.1713372E-2,7.674329E-2,1.6941957E-2,5.1605213E-2],"categories":[],"categories_nodes":[],"categories_segments":[],"categories_sizes":[],"default_left":[0,0,0,1,1,0,0,0,0,0,0,0,0,0,0,1,1,0,0,0,0,0,0,0,0,0,0,0,0,0,0,0,0],"id":27,"left_children":[1,3,5,7,9,-1,11,-1,13,15,17,19,21,-1,-1,23,25,27,29,31,-1,-1,-1,-1,-1,-1,-1,-1,-1,-1,-1,-1,-1],"loss_changes":[9.62608E3,4.1495264E3,8.4360693E2,1.8167637E3,2.8713127E3,0E0,6.5488574E2,0E0,9.7170105E0,1.0433608E3,1.7968945E2,4.756233E2,8.221777E1,0E0,0E0,4.206714E1,4.092118E2,3.3821064E1,1.2057153E2,5.909619E1,0E0,0E0,0E0,0E0,0E0,0E0,0E0,0E0,0E0,0E0,0E0,0E0,0E0],"parents":[2147483647,0,0,1,1,2,2,3,3,4,4,6,6,8,8,9,9,10,10,11,11,12,12,15,15,16,16,17,17,18,18,19,19],"right_children":[2,4,6,8,10,-1,12,-1,14,16,18,20,22,-1,-1,24,26,28,30,32,-1,-1,-1,-1,-1,-1,-1,-1,-1,-1,-1,-1,-1],"split_conditions":[8.682409E-2,1.0362969E-1,4.495279E-2,1.2639733E-1,5.696528E-1,-1.2901834E-1,4.330127E-1,-2.3073485E-1,-2.4620193E-1,-1.2096095E-1,-8.550504E-2,6.434288E-1,4.668E1,-7.02714E-2,-3.5745822E-2,1.29E1,4.4256225E-1,5.611234E-1,7.5583667E-1,1.3979822E-1,1.2001499E-1,1.1627754E-1,1.158966E-2,-9.224702E-2,-1.1899537E-2,-2.7083145E-2,5.092368E-4,-2.6510429E-2,1.5960628E-2,4.1713372E-2,7.674329E-2,1.6941957E-2,5.1605213E-2],"split_indices":[7,6,6,5,6,0,7,0,7,7,7,6,4,0,0,3,6,5,5,7,0,0,0,0,0,0,0,0,0,0,0,0,0],"split_type":[0,0,0,0,0,0,0,0,0,0,0,0,0,0,0,0,0,0,0,0,0,0,0,0,0,0,0,0,0,0,0,0,0],"sum_hessian":[5.09E2,4.01E2,1.08E2,2.3E1,3.78E2,1E0,1.07E2,1.2E1,1.1E1,3.23E2,5.5E1,5.9E1,4.8E1,3E0,8E0,2.3E1,3E2,6E0,4.9E1,4.8E1,1.1E1,4.7E1,1E0,2.2E1,1E0,2.3E2,7E1,2E0,4E0,2.8E1,2.1E1,7E0,4.1E1],"tree_param":{"num_deleted":"0","num_feature":"8","num_nodes":"33","size_leaf_vector":"1"}},{"base_weights":[-1.108338E-1,-2.1130693E0,9.163845E0,-3.2571816E0,4.91486E0,6.2887297E0,1.1323583E1,-1.2960905E1,-2.5352776E0,-1.6691229E0,6.0643873E0,5.1835284E0,1.0476044E-1,1.1504233E-1,4.4779815E-2,-2.1056425E1,-4.517858E0,-9.407815E0,-1.8465579E0,-4.1012836E0,1.5832943E0,1.7858086E0,7.0178757E0,4.210897E0,6.7778835E0,-2.2500755E-1,-8.7417334E-2,-2.4356537E-2,-5.7750538E-2,-1.1063925E-1,-6.1362743E-2,-3.0669672E-2,-6.8816957E-3,-2.083124E-2,-5.4250676E-2,2.6646644E-2,-2.5840758E-4,5.8320997E-4,3.2156613E-2,8.978143E-2,5.2473567E-2,6.207766E-2,3.534933E-2,1.4122867E-2,7.137275E-2],"categories":[],"categories_nodes":[],"categories_segments":[],"categories_sizes":[],"default_left":[0,1,0,0,0,0,0,1,0,0,0,0,0,0,0,0,0,0,1,0,0,0,1,0,1,0,0,0,0,0,0,0,0,0,0,0,0,0,0,0,0,0,0,0,0],"id":28,"left_children":[1,3,5,7,9,11,13,15,17,19,21,23,-1,-1,-1,25,27,29,31,33,35,37,39,41,43,-1,-1,-1,-1,-1,-1,-1,-1,-1,-1,-1,-1,-1,-1,-1,-1,-1,-1,-1,-1],"loss_changes":[9.935793E3,3.5539343E3,5.186914E2,2.6220952E3,4.7936743E2,1.446936E2,1.4027344E1,1.6819927E3,1.6581992E3,8.559755E1,2.0368481E2,2.7284973E1,0E0,0E0,0E0,3.4529297E1,2.2582306E1,1.0548584E2,4.545171E2,4.728569E0,8.76921E0,2.6983044E1,1.02128174E2,1.1801239E1,1.3060364E1,0E0,0E0,0E0,0E0,0E0,0E0,0E0,0E0,0E0,0E0,0E0,0E0,0E0,0E0,0E0,0E0,0E0,0E0,0E0,0E0],"parents":[2147483647,0,0,1,1,2,2,3,3,4,4,5,5,6,6,7,7,8,8,9,9,10,10,11,11,15,15,16,16,17,17,18,18,19,19,20,20,21,21,22,22,23,23,24,24],"right_children":[2,4,6,8,10,12,14,16,18,20,22,24,-1,-1,-1,26,28,30,32,34,36,38,40,42,44,-1,-1,-1,-1,-1,-1,-1,-1,-1,-1,-1,-1,-1,-1,-1,-1,-1,-1,-1,-1],"split_conditions":[1.970027E-1,5.696528E-1,3.715724E-1,1.0362969E-1,-8.550504E-2,5.696528E-1,7.8E1,1.2431524E-1,-1.0959279E-1,5.611234E-1,5.25E-1,2.9389262E-1,1.0476044E-1,1.1504233E-1,4.4779815E-2,9.886734E-2,7E1,-2.3492315E-1,3.1551662E-1,1.16E1,7.5E1,4.314E1,5.3798115E-1,5.8E1,-1E-5,-2.2500755E-1,-8.7417334E-2,-2.4356537E-2,-5.7750538E-2,-1.1063925E-1,-6.1362743E-2,-3.0669672E-2,-6.8816957E-3,-2.083124E-2,-5.4250676E-2,2.6646644E-2,-2.5840758E-4,5.8320997E-4,3.2156613E-2,8.978143E-2,5.2473567E-2,6.207766E-2,3.534933E-2,1.4122867E-2,7.137275E-2],"split_indices":[7,6,7,6,7,6,0,5,7,5,5,7,0,0,0,6,0,7,6,3,0,4,5,0,5,0,0,0,0,0,0,0,0,0,0,0,0,0,0,0,0,0,0,0,0],"split_type":[0,0,0,0,0,0,0,0,0,0,0,0,0,0,0,0,0,0,0,0,0,0,0,0,0,0,0,0,0,0,0,0,0,0,0,0,0,0,0,0,0,0,0,0,0],"sum_hessian":[5.33E2,4.39E2,9.4E1,3.78E2,6.1E1,4.2E1,5.2E1,2.5E1,3.53E2,9E0,5.2E1,3.5E1,7E0,5E1,2E0,1.2E1,1.3E1,3.1E1,3.22E2,5E0,4E0,1E1,4.2E1,2.4E1,1.1E1,1E1,2E0,6E0,7E0,1.9E1,1.2E1,1.56E2,1.66E2,3E0,2E0,2E0,2E0,5E0,5E0,1.8E1,2.4E1,4E0,2E1,1E0,1E1],"tree_param":{"num_deleted":"0","num_feature":"8","num_nodes":"45","size_leaf_vector":"1"}},{"base_weights":[1.0269371E-1,-2.2616415E0,8.104181E0,-3.6881247E0,3.6013043E0,4.007076E0,1.0609219E1,-1.2448E1,-2.8683133E0,-5.7436365E-1,5.149785E0,-1.2724821E-1,4.6616697E0,8.161861E0,1.1896258E-1,-2.1206957E-1,-4.0270367E0,-8.784326E0,-2.2100768E0,-6.938306E-2,4.0894595E-1,2.6895528E0,7.274342E0,3.2828286E0,1.0628456E-1,6.7930007E0,1.12980135E-1,-2.2321064E-2,-4.975645E-2,-1.1168548E-1,-6.941653E-2,-3.484212E-2,-1.5677512E-2,-9.076915E-3,2.4973635E-2,-3.469422E-2,3.04616E-2,8.160864E-2,5.0011806E-2,1.3287625E-2,3.681206E-2,2.8980311E-2,7.255468E-2],"categories":[],"categories_nodes":[],"categories_segments":[],"categories_sizes":[],"default_left":[0,1,0,0,0,0,0,1,0,0,0,0,0,0,0,0,0,0,1,0,0,0,0,0,0,0,0,0,0,0,0,0,0,0,0,0,0,0,0,0,0,0,0],"id":29,"left_children":[1,3,5,7,9,11,13,15,17,19,21,-1,23,25,-1,-1,27,29,31,-1,33,35,37,39,-1,41,-1,-1,-1,-1,-1,-1,-1,-1,-1,-1,-1,-1,-1,-1,-1,-1,-1],"loss_changes":[9.704447E3,3.3251865E3,1.1583062E3,2.2551768E3,5.0730127E2,5.6313824E2,1.2969434E2,1.9060884E3,1.1215676E3,1.4050737E2,2.783689E2,0E0,3.353349E2,4.3455444E1,0E0,0E0,1.4434113E1,4.9878662E1,2.1141626E2,0E0,5.7260616E1,7.206581E1,1.9642334E1,2.468982E1,0E0,1.8601868E1,0E0,0E0,0E0,0E0,0E0,0E0,0E0,0E0,0E0,0E0,0E0,0E0,0E0,0E0,0E0,0E0,0E0],"parents":[2147483647,0,0,1,1,2,2,3,3,4,4,5,5,6,6,7,7,8,8,9,9,10,10,12,12,13,13,16,16,17,17,18,18,20,20,21,21,22,22,23,23,25,25],"right_children":[2,4,6,8,10,12,14,16,18,20,22,-1,24,26,-1,-1,28,30,32,-1,34,36,38,40,-1,42,-1,-1,-1,-1,-1,-1,-1,-1,-1,-1,-1,-1,-1,-1,-1,-1,-1],"split_conditions":[8.682409E-2,5.14275E-1,2.4939102E-1,1.22966975E-1,4.897015E-1,5.2869394E-2,4.4147378E-1,1.2639733E-1,-1.0959279E-1,-2.3492315E-1,6.189175E-1,-1.2724821E-1,6.1343145E-1,5.49665E-1,1.1896258E-1,-2.1206957E-1,7E1,-2.7959645E-1,2.5865468E-1,-6.938306E-2,5.935506E-1,-3.596699E-1,7.1E1,1.3781868E-1,1.0628456E-1,2.9389262E-1,1.12980135E-1,-2.2321064E-2,-4.975645E-2,-1.1168548E-1,-6.941653E-2,-3.484212E-2,-1.5677512E-2,-9.076915E-3,2.4973635E-2,-3.469422E-2,3.04616E-2,8.160864E-2,5.0011806E-2,1.3287625E-2,3.681206E-2,2.8980311E-2,7.255468E-2],"split_indices":[7,6,7,6,5,5,7,5,7,7,6,0,6,6,0,0,0,7,6,0,6,7,0,7,0,7,0,0,0,0,0,0,0,0,0,0,0,0,0,0,0,0,0],"split_type":[0,0,0,0,0,0,0,0,0,0,0,0,0,0,0,0,0,0,0,0,0,0,0,0,0,0,0,0,0,0,0,0,0,0,0,0,0,0,0,0,0,0,0],"sum_hessian":[5.11E2,3.95E2,1.16E2,3.18E2,7.7E1,4.5E1,7.1E1,2.6E1,2.92E2,2.1E1,5.6E1,1E0,4.4E1,2.7E1,4.4E1,1.2E1,1.4E1,2.8E1,2.64E2,2E0,1.9E1,2.7E1,2.9E1,3.7E1,7E0,2.1E1,6E0,6E0,8E0,1E1,1.8E1,8.7E1,1.77E2,1.2E1,7E0,1E0,2.6E1,1.9E1,1E1,7E0,3E1,3E0,1.8E1],"tree_param":{"num_deleted":"0","num_feature":"8","num_nodes":"43","size_leaf_vector":"1"}},{"base_weights":[-1.41845355E-2,-2.2267306E0,7.8061433E0,-3.4856882E0,4.270407E0,4.8251157E0,1.1258589E1,-1.1953705E1,-2.6975296E0,-2.3667173E0,5.0841837E0,-1.2661196E-1,5.3036475E0,6.4154706E0,1.1629425E1,-1.9602901E1,-4.5135508E0,-8.590725E0,-2.0493248E0,-3.4418125E-2,-4.3116903E-1,8.339989E-1,5.9175406E0,3.941674E0,1.0763562E-1,1.036169E-2,7.2840974E-2,1.1735537E-1,3.3210676E-2,-9.089899E-3,-2.0970972E-1,-6.893806E-2,-3.433968E-2,-1.6681187E-1,-7.457549E-2,-3.0497236E-2,-9.989164E-3,-1.49263665E-2,4.2019906E-3,-6.7450646E-3,2.2035046E-2,7.70398E-2,4.4697814E-2,1.3379516E-2,4.455524E-2],"categories":[0],"categories_nodes":[13],"categories_segments":[0],"categories_sizes":[1],"default_left":[0,1,0,0,0,0,1,1,0,0,0,0,0,0,0,0,0,0,1,0,0,0,0,0,0,0,0,0,0,0,0,0,0,0,0,0,0,0,0,0,0,0,0,0,0],"id":30,"left_children":[1,3,5,7,9,11,13,15,17,19,21,-1,23,25,27,29,31,33,35,-1,37,39,41,43,-1,-1,-1,-1,-1,-1,-1,-1,-1,-1,-1,-1,-1,-1,-1,-1,-1,-1,-1,-1,-1],"loss_changes":[9.101371E3,3.3685305E3,1.1395298E3,2.2636587E3,3.7390906E2,6.0268713E2,2.0580078E1,1.5619468E3,1.1895144E3,1.5163185E1,2.0758008E2,0E0,4.2605786E2,2.0488068E1,3.3432617E0,3.3898193E2,1.7441803E1,1.5980493E2,2.974901E2,0E0,4.242003E0,2.4211252E1,9.4881714E1,6.3610657E1,0E0,0E0,0E0,0E0,0E0,0E0,0E0,0E0,0E0,0E0,0E0,0E0,0E0,0E0,0E0,0E0,0E0,0E0,0E0,0E0,0E0],"parents":[2147483647,0,0,1,1,2,2,3,3,4,4,5,5,6,6,7,7,8,8,9,9,10,10,12,12,13,13,14,14,15,15,16,16,17,17,18,18,20,20,21,21,22,22,23,23],"right_children":[2,4,6,8,10,12,14,16,18,20,22,-1,24,26,28,30,32,34,36,-1,38,40,42,44,-1,-1,-1,-1,-1,-1,-1,-1,-1,-1,-1,-1,-1,-1,-1,-1,-1,-1,-1,-1,-1],"split_conditions":[8.682409E-2,5.49665E-1,3.715724E-1,1.22966975E-1,-8.550504E-2,5.2869394E-2,2.4681725E-1,1.2639733E-1,-5.2264232E-2,6.982948E-1,4.1E-1,-1.2661196E-1,6.1343145E-1,NaN,8.3E1,5.8E1,-2.4620193E-1,-4.9240386E-1,3.2E-1,-3.4418125E-2,7.2E1,5.696528E-1,6.7E1,1.3781868E-1,1.0763562E-1,1.036169E-2,7.2840974E-2,1.1735537E-1,3.3210676E-2,-9.089899E-3,-2.0970972E-1,-6.893806E-2,-3.433968E-2,-1.6681187E-1,-7.457549E-2,-3.0497236E-2,-9.989164E-3,-1.49263665E-2,4.2019906E-3,-6.7450646E-3,2.2035046E-2,7.70398E-2,4.4697814E-2,1.3379516E-2,4.455524E-2],"split_indices":[7,6,7,6,7,5,6,5,7,6,5,0,6,2,0,0,7,7,6,0,0,6,0,7,0,0,0,0,0,0,0,0,0,0,0,0,0,0,0,0,0,0,0,0,0],"split_type":[0,0,0,0,0,0,0,0,0,0,0,0,0,1,0,0,0,0,0,0,0,0,0,0,0,0,0,0,0,0,0,0,0,0,0,0,0,0,0,0,0,0,0,0,0],"sum_hessian":[5.24E2,4.09E2,1.15E2,3.43E2,6.6E1,6.3E1,5.2E1,2.8E1,3.15E2,7E0,5.9E1,1E0,6.2E1,5E0,4.7E1,1.3E1,1.5E1,3E1,2.85E2,4E0,3E0,1E1,4.9E1,5.1E1,1.1E1,1E0,4E0,4.6E1,1E0,1E0,1.2E1,3E0,1.2E1,2E0,2.8E1,1.45E2,1.4E2,1E0,2E0,5E0,5E0,2E1,2.9E1,9E0,4.2E1],"tree_param":{"num_deleted":"0","num_feature":"8","num_nodes":"45","size_leaf_vector":"1"}},{"base_weights":[4.1201483E-2,-1.9320477E0,9.011941E0,-3.0448499E0,5.0500784E0,4.539091E0,1.06723385E1,-1.0793394E1,-2.303455E0,-2.081752E0,6.013126E0,3.4084463E0,6.5472918E0,7.8071275E0,1.1514006E1,-1.9566586E1,-4.112491E0,-9.387459E0,-1.60782E0,-4.4134183E0,1.3532686E0,1.7384596E0,6.6127896E0,3.6208456E0,9.979019E-3,7.232934E0,5.310764E-3,8.126303E0,1.0309887E-2,1.1610183E-1,3.3044625E-2,-9.044447E-3,-2.0932561E-1,-6.8421036E-2,-3.2283183E-2,-1.5091398E-1,-8.237343E-2,-2.2564014E-2,3.5802238E-3,-2.031044E-2,-5.324653E-2,2.7701702E-2,-4.2421976E-4,2.4221899E-2,-1.52382655E-2,8.332221E-2,4.7664013E-2,3.765373E-2,5.819397E-3,2.439888E-2,8.4239684E-2,3.6095113E-2,8.789027E-2],"categories":[],"categories_nodes":[],"categories_segments":[],"categories_sizes":[],"default_left":[0,1,0,0,0,0,1,1,0,0,0,0,1,0,0,0,0,0,1,0,0,0,1,0,0,0,0,0,0,0,0,0,0,0,0,0,0,0,0,0,0,0,0,0,0,0,0,0,0,0,0,0,0],"id":31,"left_children":[1,3,5,7,9,11,13,15,17,19,21,23,25,27,29,31,33,35,37,39,41,43,45,47,-1,49,-1,51,-1,-1,-1,-1,-1,-1,-1,-1,-1,-1,-1,-1,-1,-1,-1,-1,-1,-1,-1,-1,-1,-1,-1,-1,-1],"loss_changes":[9.523121E3,3.4418257E3,6.7194824E2,2.1638804E3,4.3148364E2,4.1259644E1,7.891797E1,1.8537561E3,1.7047373E3,7.004711E1,1.26925415E2,6.6267242E0,3.328351E1,3.27146E1,2.692871E0,3.3795654E2,2.6180511E1,7.9052734E1,4.0753577E2,3.9901733E-2,8.0277405E0,2.1535192E1,1.094978E2,5.7144623E0,0E0,2.5115906E1,0E0,2.215686E1,0E0,0E0,0E0,0E0,0E0,0E0,0E0,0E0,0E0,0E0,0E0,0E0,0E0,0E0,0E0,0E0,0E0,0E0,0E0,0E0,0E0,0E0,0E0,0E0,0E0],"parents":[2147483647,0,0,1,1,2,2,3,3,4,4,5,5,6,6,7,7,8,8,9,9,10,10,11,11,12,12,13,13,14,14,15,15,16,16,17,17,18,18,19,19,20,20,21,21,22,22,23,23,25,25,27,27],"right_children":[2,4,6,8,10,12,14,16,18,20,22,24,26,28,30,32,34,36,38,40,42,44,46,48,-1,50,-1,52,-1,-1,-1,-1,-1,-1,-1,-1,-1,-1,-1,-1,-1,-1,-1,-1,-1,-1,-1,-1,-1,-1,-1,-1,-1],"split_conditions":[1.9151111E-1,5.696528E-1,2.4984771E-1,1.22966975E-1,-8.550504E-2,4.997023E-1,3.3813745E-1,1.2639733E-1,-1.0959279E-1,5.611234E-1,4.674253E-1,7.9E1,1.24E1,4.623E1,8.3E1,5.8E1,-2.4620193E-1,-4.9240386E-1,4.3394035E-1,1.16E1,6.3E1,7.5E1,5.5364805E-1,4.8470455E-1,9.979019E-3,4.2295516E-1,5.310764E-3,2.9389262E-1,1.0309887E-2,1.1610183E-1,3.3044625E-2,-9.044447E-3,-2.0932561E-1,-6.8421036E-2,-3.2283183E-2,-1.5091398E-1,-8.237343E-2,-2.2564014E-2,3.5802238E-3,-2.031044E-2,-5.324653E-2,2.7701702E-2,-4.2421976E-4,2.4221899E-2,-1.52382655E-2,8.332221E-2,4.7664013E-2,3.765373E-2,5.819397E-3,2.439888E-2,8.4239684E-2,3.6095113E-2,8.789027E-2],"split_indices":[7,6,7,6,7,6,6,5,7,5,5,0,3,4,0,0,7,7,6,3,0,0,5,6,0,5,0,7,0,0,0,0,0,0,0,0,0,0,0,0,0,0,0,0,0,0,0,0,0,0,0,0,0],"split_type":[0,0,0,0,0,0,0,0,0,0,0,0,0,0,0,0,0,0,0,0,0,0,0,0,0,0,0,0,0,0,0,0,0,0,0,0,0,0,0,0,0,0,0,0,0,0,0,0,0,0,0,0,0],"sum_hessian":[5.36E2,4.4E2,9.6E1,3.8E2,6E1,2.7E1,6.9E1,3.2E1,3.48E2,7E0,5.3E1,1.9E1,8E0,1.8E1,5.1E1,1.3E1,1.9E1,3E1,3.18E2,4E0,3E0,7E0,4.6E1,1.7E1,2E0,7E0,1E0,1.7E1,1E0,5E1,1E0,1E0,1.2E1,3E0,1.6E1,3E0,2.7E1,2.39E2,7.9E1,2E0,2E0,1E0,2E0,6E0,1E0,2.2E1,2.4E1,1.6E1,1E0,2E0,5E0,3E0,1.4E1],"tree_param":{"num_deleted":"0","num_feature":"8","num_nodes":"53","size_leaf_vector":"1"}},{"base_weights":[-7.722683E-2,-2.3043222E0,7.7860594E0,-3.448895E0,4.353529E0,3.5438395E0,1.0270388E1,-1.1002441E1,-2.6730645E0,-4.751077E0,5.2676034E0,-1.24932274E-1,4.2073345E0,8.047998E0,1.1582046E1,-2.073166E-1,-4.128328E0,-9.104097E0,-1.9416045E0,-1.576891E-2,-7.3996335E-2,1.0366024E0,6.1847906E0,3.1861255E0,9.97377E-2,5.8961926E0,1.0086049E-1,1.1808959E-1,1.0258331E-2,-6.790788E-2,-3.2590237E-2,-1.09079175E-1,-6.005763E-2,-2.9597431E-2,-1.04386555E-2,1.7619394E-2,-1.4849427E-2,8.381592E-2,4.2570665E-2,1.5344626E-2,3.721203E-2,1.7097931E-2,6.0509805E-2],"categories":[],"categories_nodes":[],"categories_segments":[],"categories_sizes":[],"default_left":[0,1,0,0,0,0,0,1,0,0,0,0,0,0,0,0,0,0,1,0,0,0,0,0,0,0,0,0,0,0,0,0,0,0,0,0,0,0,0,0,0,0,0],"id":32,"left_children":[1,3,5,7,9,11,13,15,17,19,21,-1,23,25,27,-1,29,31,33,-1,-1,35,37,39,-1,41,-1,-1,-1,-1,-1,-1,-1,-1,-1,-1,-1,-1,-1,-1,-1,-1,-1],"loss_changes":[9.124331E3,3.1088953E3,1.1755957E3,2.004104E3,5.2436426E2,5.207459E2,1.1666846E2,2.0545654E3,1.4688013E3,3.877365E1,2.0702283E2,0E0,2.2143799E2,7.209546E1,9.088623E1,0E0,2.4158417E1,1.1333252E2,2.5740698E2,0E0,0E0,2.273505E1,1.5488623E2,2.7873138E1,0E0,6.70166E-1,0E0,0E0,0E0,0E0,0E0,0E0,0E0,0E0,0E0,0E0,0E0,0E0,0E0,0E0,0E0,0E0,0E0],"parents":[2147483647,0,0,1,1,2,2,3,3,4,4,5,5,6,6,7,7,8,8,9,9,10,10,12,12,13,13,14,14,16,16,17,17,18,18,21,21,22,22,23,23,25,25],"right_children":[2,4,6,8,10,12,14,16,18,20,22,-1,24,26,28,-1,30,32,34,-1,-1,36,38,40,-1,42,-1,-1,-1,-1,-1,-1,-1,-1,-1,-1,-1,-1,-1,-1,-1,-1,-1],"split_conditions":[8.550504E-2,5.49665E-1,2.4939102E-1,1.22966975E-1,-2.1650635E-1,5.2869394E-2,4.4147378E-1,1.2639733E-1,-1.0959279E-1,7.730741E-1,4.901827E-1,-1.24932274E-1,6.1343145E-1,4.5971978E-1,4.668E1,-2.073166E-1,-2.4620193E-1,-2.3492315E-1,3.1551662E-1,-1.576891E-2,-7.3996335E-2,7.2E1,6.7E1,1.3781868E-1,9.97377E-2,4.186E1,1.0086049E-1,1.1808959E-1,1.0258331E-2,-6.790788E-2,-3.2590237E-2,-1.09079175E-1,-6.005763E-2,-2.9597431E-2,-1.04386555E-2,1.7619394E-2,-1.4849427E-2,8.381592E-2,4.2570665E-2,1.5344626E-2,3.721203E-2,1.7097931E-2,6.0509805E-2],"split_indices":[7,6,7,6,7,5,7,5,7,6,5,0,6,6,4,0,7,7,6,0,0,0,0,7,0,4,0,0,0,0,0,0,0,0,0,0,0,0,0,0,0,0,0],"split_type":[0,0,0,0,0,0,0,0,0,0,0,0,0,0,0,0,0,0,0,0,0,0,0,0,0,0,0,0,0,0,0,0,0,0,0,0,0,0,0,0,0,0,0],"sum_hessian":[5.19E2,4.05E2,1.14E2,3.46E2,5.9E1,4.3E1,7.1E1,3.1E1,3.15E2,5E0,5.4E1,1E0,4.2E1,2.9E1,4.2E1,1.2E1,1.9E1,3.1E1,2.84E2,3E0,2E0,1E1,4.4E1,3.7E1,5E0,1.6E1,1.3E1,4.1E1,1E0,3E0,1.6E1,1.8E1,1.3E1,1.32E2,1.52E2,8E0,2E0,1.9E1,2.5E1,1E1,2.7E1,1E0,1.5E1],"tree_param":{"num_deleted":"0","num_feature":"8","num_nodes":"43","size_leaf_vector":"1"}},{"base_weights":[-3.2704975E-2,-2.194427E0,7.54268E0,-4.0405955E0,2.2004764E0,3.675401E0,1.0016107E1,-1.1680912E1,-3.0298243E0,-1.3918163E0,4.0574045E0,-1.2430762E-1,4.2825694E0,8.890286E0,1.2498724E1,-1.9722815E1,-4.2939997E0,-8.449909E0,-2.368319E0,-8.928943E-2,-3.898304E-1,1.7004387E0,6.155573E0,3.0861652E0,1.0678285E-1,5.7968082E0,9.958849E-2,1.2787376E-1,3.507158E-2,-7.962637E-3,-2.0931499E-1,-6.739858E-2,-3.41416E-2,-9.822155E-2,-6.1109975E-2,-3.6028998E-3,-2.7196795E-2,1.7938256E-2,-9.235622E-3,-3.643172E-2,2.3953723E-2,7.728131E-3,6.843493E-2,5.7259783E-2,2.5604695E-2,6.0451705E-2,1.0356865E-2],"categories":[],"categories_nodes":[],"categories_segments":[],"categories_sizes":[],"default_left":[0,1,0,0,0,0,1,1,0,0,0,0,0,0,0,1,0,0,0,0,0,0,0,0,0,0,0,0,0,0,0,0,0,0,0,0,0,0,0,0,0,0,0,0,0,0,0],"id":33,"left_children":[1,3,5,7,9,11,13,15,17,19,21,-1,23,25,27,29,31,33,35,-1,37,39,41,43,-1,45,-1,-1,-1,-1,-1,-1,-1,-1,-1,-1,-1,-1,-1,-1,-1,-1,-1,-1,-1,-1,-1],"loss_changes":[8.777646E3,3.3923174E3,1.1014736E3,2.2350576E3,8.3280524E2,5.2263513E2,9.012158E1,1.9350742E3,9.15781E2,3.2125934E2,3.9504834E2,0E0,3.2668262E2,1.1746582E2,7.0615234E0,3.4935352E2,1.7876343E1,2.9844604E1,1.6411694E2,0E0,4.711069E1,1.5726495E2,1.5393665E2,4.2236084E1,0E0,1.2658813E1,0E0,0E0,0E0,0E0,0E0,0E0,0E0,0E0,0E0,0E0,0E0,0E0,0E0,0E0,0E0,0E0,0E0,0E0,0E0,0E0,0E0],"parents":[2147483647,0,0,1,1,2,2,3,3,4,4,5,5,6,6,7,7,8,8,9,9,10,10,12,12,13,13,14,14,15,15,16,16,17,17,18,18,20,20,21,21,22,22,23,23,25,25],"right_children":[2,4,6,8,10,12,14,16,18,20,22,-1,24,26,28,30,32,34,36,-1,38,40,42,44,-1,46,-1,-1,-1,-1,-1,-1,-1,-1,-1,-1,-1,-1,-1,-1,-1,-1,-1,-1,-1,-1,-1],"split_conditions":[8.682409E-2,4.5483863E-1,2.4939102E-1,1.22966975E-1,4.901827E-1,5.2869394E-2,5.6465584E-1,1.2639733E-1,-7.725425E-2,-2.3492315E-1,6.046314E-1,-1.2430762E-1,5.75E-1,4.330127E-1,4.608E1,-1E-5,-2.4620193E-1,-2.2073689E-1,6E1,-8.928943E-2,4.221E1,-1.7101008E-1,-1.25E-1,5.6E1,1.0678285E-1,4.55E1,9.958849E-2,1.2787376E-1,3.507158E-2,-7.962637E-3,-2.0931499E-1,-6.739858E-2,-3.41416E-2,-9.822155E-2,-6.1109975E-2,-3.6028998E-3,-2.7196795E-2,1.7938256E-2,-9.235622E-3,-3.643172E-2,2.3953723E-2,7.728131E-3,6.843493E-2,5.7259783E-2,2.5604695E-2,6.0451705E-2,1.0356865E-2],"split_indices":[7,6,7,6,5,5,6,5,7,7,6,0,6,7,4,3,7,7,0,0,4,7,7,0,0,4,0,0,0,0,0,0,0,0,0,0,0,0,0,0,0,0,0,0,0,0,0],"split_type":[0,0,0,0,0,0,0,0,0,0,0,0,0,0,0,0,0,0,0,0,0,0,0,0,0,0,0,0,0,0,0,0,0,0,0,0,0,0,0,0,0,0,0,0,0,0,0],"sum_hessian":[5.34E2,4.16E2,1.18E2,2.93E2,1.23E2,4.7E1,7.1E1,3.3E1,2.6E2,4.2E1,8.1E1,1E0,4.6E1,5.2E1,1.9E1,1.5E1,1.8E1,2.7E1,2.33E2,4E0,3.8E1,3.9E1,4.2E1,4E1,6E0,1.5E1,3.7E1,1.8E1,1E0,1E0,1.4E1,3E0,1.5E1,1.5E1,1.2E1,3.5E1,1.98E2,7E0,3.1E1,4E0,3.5E1,5E0,3.7E1,5E0,3.5E1,1.4E1,1E0],"tree_param":{"num_deleted":"0","num_feature":"8","num_nodes":"47","size_leaf_vector":"1"}},{"base_weights":[1.0704473E-2,-2.1909108E0,7.753583E0,-1.1394778E1,-1.392168E0,3.709938E0,1.019542E1,-1.9463856E1,-3.5892217E0,-2.6452825E0,3.099815E0,-1.2368608E-1,4.3420973E0,7.875573E0,1.1385861E-1,-7.922821E-3,-2.065581E-1,-1.3980393E-2,-3.9342556E0,-8.434017E0,-2.0883648E0,-1.1136864E0,4.8037767E0,3.2109282E0,1.00240245E-1,6.5941224E0,1.1475207E-1,-1.0143785E-2,-4.0703624E-2,-6.8528173E-3,-8.716556E-2,-3.036901E-2,-1.13845235E-2,-5.772205E-2,4.851741E-4,-1.9097365E-2,5.4488186E-2,5.8933675E-2,2.7359817E-2,3.596341E-2,7.035953E-2],"categories":[],"categories_nodes":[],"categories_segments":[],"categories_sizes":[],"default_left":[0,0,0,1,1,0,0,0,0,0,0,0,0,0,0,0,0,0,0,0,1,0,0,0,0,0,0,0,0,0,0,0,0,0,0,0,0,0,0,0,0],"id":34,"left_children":[1,3,5,7,9,11,13,15,17,19,21,-1,23,25,-1,-1,-1,-1,27,29,31,33,35,37,-1,39,-1,-1,-1,-1,-1,-1,-1,-1,-1,-1,-1,-1,-1,-1,-1],"loss_changes":[9.085907E3,3.035019E3,1.1272983E3,2.0086001E3,2.164095E3,5.2125885E2,1.1192969E2,3.397256E2,8.108353E0,9.4954175E2,6.084403E2,0E0,2.570385E2,5.348828E1,0E0,0E0,0E0,0E0,1.832367E0,5.094873E1,2.4432483E2,1.3563379E2,2.7023547E2,3.356247E1,0E0,5.160034E0,0E0,0E0,0E0,0E0,0E0,0E0,0E0,0E0,0E0,0E0,0E0,0E0,0E0,0E0,0E0],"parents":[2147483647,0,0,1,1,2,2,3,3,4,4,5,5,6,6,7,7,8,8,9,9,10,10,12,12,13,13,18,18,19,19,20,20,21,21,22,22,23,23,25,25],"right_children":[2,4,6,8,10,12,14,16,18,20,22,-1,24,26,-1,-1,-1,-1,28,30,32,34,36,38,-1,40,-1,-1,-1,-1,-1,-1,-1,-1,-1,-1,-1,-1,-1,-1,-1],"split_conditions":[8.682409E-2,1.22966975E-1,2.4939102E-1,1.2639733E-1,5.14275E-1,5.2869394E-2,4.4147378E-1,5.8E1,6.2E1,-1.0959279E-1,4.897015E-1,-1.2368608E-1,6.1343145E-1,5.49665E-1,1.1385861E-1,-7.922821E-3,-2.065581E-1,-1.3980393E-2,1.6548225E-1,5.6E1,3.1049463E-1,-8.550504E-2,-1.7101008E-1,5.1E1,1.00240245E-1,2.9389262E-1,1.1475207E-1,-1.0143785E-2,-4.0703624E-2,-6.8528173E-3,-8.716556E-2,-3.036901E-2,-1.13845235E-2,-5.772205E-2,4.851741E-4,-1.9097365E-2,5.4488186E-2,5.8933675E-2,2.7359817E-2,3.596341E-2,7.035953E-2],"split_indices":[7,6,7,5,6,5,7,0,0,7,5,0,6,6,0,0,0,0,5,0,6,7,7,0,0,7,0,0,0,0,0,0,0,0,0,0,0,0,0,0,0],"split_type":[0,0,0,0,0,0,0,0,0,0,0,0,0,0,0,0,0,0,0,0,0,0,0,0,0,0,0,0,0,0,0,0,0,0,0,0,0,0,0,0,0],"sum_hessian":[5.31E2,4.14E2,1.17E2,3.2E1,3.82E2,4.5E1,7.2E1,1.5E1,1.7E1,2.99E2,8.3E1,1E0,4.4E1,2.7E1,4.5E1,1E0,1.4E1,3E0,1.4E1,2.5E1,2.74E2,2.4E1,5.9E1,3.8E1,6E0,2.2E1,5E0,1E0,1.3E1,1E0,2.4E1,1.36E2,1.38E2,4E0,2E1,5E0,5.4E1,4E0,3.4E1,4E0,1.8E1],"tree_param":{"num_deleted":"0","num_feature":"8","num_nodes":"41","size_leaf_vector":"1"}},{"base_weights":[5.1310606E-2,-2.105024E0,8.060096E0,-1.3236762E1,-1.3897219E0,5.074379E0,1.0752412E-1,-2.17068E-1,-3.7485118E0,-2.4014232E0,4.248383E0,4.132156E0,1.00934185E-1,-1.3875537E-2,-4.3180436E-2,-8.951484E0,-1.8637115E0,-3.9285088E0,5.2296767E0,3.2687228E0,6.2053432E0,-9.245437E-2,-9.483127E-3,-2.4829132E-2,2.858908E-3,-7.252296E-2,-1.14853475E-2,3.635951E-2,7.560962E-2,3.5801273E-2,6.219902E-3,1.1727848E-2,6.526991E-2],"categories":[],"categories_nodes":[],"categories_segments":[],"categories_sizes":[],"default_left":[0,0,0,1,1,0,0,0,0,0,0,0,0,0,0,1,1,0,0,0,0,0,0,0,0,0,0,0,0,0,0,0,0],"id":35,"left_children":[1,3,5,7,9,11,-1,-1,13,15,17,19,-1,-1,-1,21,23,25,27,29,31,-1,-1,-1,-1,-1,-1,-1,-1,-1,-1,-1,-1],"loss_changes":[9.118058E3,3.2940283E3,8.4574854E2,1.9277783E3,2.2462012E3,2.1839038E2,0E0,0E0,1.1488815E1,1.1561581E3,5.019807E2,6.563928E1,0E0,0E0,0E0,5.0046265E1,4.120005E2,5.6350777E1,1.7314185E2,2.744455E1,1.3388489E1,0E0,0E0,0E0,0E0,0E0,0E0,0E0,0E0,0E0,0E0,0E0,0E0],"parents":[2147483647,0,0,1,1,2,2,3,3,4,4,5,5,8,8,9,9,10,10,11,11,15,15,16,16,17,17,18,18,19,19,20,20],"right_children":[2,4,6,8,10,12,-1,-1,14,16,18,20,-1,-1,-1,22,24,26,28,30,32,-1,-1,-1,-1,-1,-1,-1,-1,-1,-1,-1,-1],"split_conditions":[1.0395584E-1,1.0673253E-1,3.715724E-1,1.2639733E-1,5.696528E-1,6.1343145E-1,1.0752412E-1,-2.17068E-1,6.2E1,-1.25E-1,-1.7101008E-1,2.4939102E-1,1.00934185E-1,-1.3875537E-2,-4.3180436E-2,1.29E1,4.4505715E-1,4.246E1,8.87832E-1,7.9E1,4.163E1,-9.245437E-2,-9.483127E-3,-2.4829132E-2,2.858908E-3,-7.252296E-2,-1.14853475E-2,3.635951E-2,7.560962E-2,3.5801273E-2,6.219902E-3,1.1727848E-2,6.526991E-2],"split_indices":[7,6,7,5,6,6,0,0,0,7,7,7,0,0,0,3,6,4,5,0,4,0,0,0,0,0,0,0,0,0,0,0,0],"split_type":[0,0,0,0,0,0,0,0,0,0,0,0,0,0,0,0,0,0,0,0,0,0,0,0,0,0,0,0,0,0,0,0,0],"sum_hessian":[5.26E2,4.15E2,1.11E2,2.4E1,3.91E2,5.4E1,5.7E1,1.2E1,1.2E1,3.32E2,5.9E1,4.7E1,7E0,3E0,9E0,2.4E1,3.08E2,6E0,5.3E1,3.5E1,1.2E1,2.3E1,1E0,2.39E2,6.9E1,2E0,4E0,3.3E1,2E1,3.1E1,4E0,1E0,1.1E1],"tree_param":{"num_deleted":"0","num_feature":"8","num_nodes":"33","size_leaf_vector":"1"}},{"base_weights":[-1.7583485E-1,-2.0627573E0,8.721589E0,-1.2233521E1,-1.2398247E0,6.20165E0,1.08498335E-1,-1.9470057E1,-3.7801085E0,-2.2266297E0,4.248371E0,4.374808E0,9.441892E0,-2.1448456E-1,-1.0432206E1,-1.3771467E-2,-4.2287035E0,-8.631712E0,-1.574733E0,-1.6095343E0,5.293192E0,2.3339257E0,5.278553E-2,2.166418E-2,9.8068245E-2,-1.7018467E-1,-3.6854362E-3,-9.877167E-3,-4.4164762E-2,-1.6254708E-1,-7.545481E-2,-2.2881143E-2,7.3689315E-4,-3.939071E-2,1.50781665E-2,2.9946519E-2,7.156417E-2,2.5435813E-2,9.269841E-3],"categories":[],"categories_nodes":[],"categories_segments":[],"categories_sizes":[],"default_left":[0,0,0,1,1,0,0,0,0,0,0,0,0,0,0,0,0,0,1,0,0,0,0,0,0,0,0,0,0,0,0,0,0,0,0,0,0,0,0],"id":36,"left_children":[1,3,5,7,9,11,-1,13,15,17,19,21,23,-1,25,-1,27,29,31,33,35,37,-1,-1,-1,-1,-1,-1,-1,-1,-1,-1,-1,-1,-1,-1,-1,-1,-1],"loss_changes":[8.731352E3,3.5755005E3,4.207505E2,1.8839502E3,2.1649397E3,2.191477E2,0E0,8.021338E1,1.1423782E1,1.3977097E3,3.8186768E2,4.3013367E1,1.85802E1,0E0,3.251375E2,0E0,3.5491638E0,1.3404077E2,3.623623E2,7.8559235E1,2.0126929E2,8.8684845E-1,0E0,0E0,0E0,0E0,0E0,0E0,0E0,0E0,0E0,0E0,0E0,0E0,0E0,0E0,0E0,0E0,0E0],"parents":[2147483647,0,0,1,1,2,2,3,3,4,4,5,5,7,7,8,8,9,9,10,10,11,11,12,12,14,14,16,16,17,17,18,18,19,19,20,20,21,21],"right_children":[2,4,6,8,10,12,-1,14,16,18,20,22,24,-1,26,-1,28,30,32,34,36,38,-1,-1,-1,-1,-1,-1,-1,-1,-1,-1,-1,-1,-1,-1,-1,-1,-1],"split_conditions":[1.970027E-1,1.22966975E-1,4.330127E-1,1.2639733E-1,5.696528E-1,4.5971978E-1,1.08498335E-1,9.886734E-2,6.2E1,-1.0959279E-1,-8.550504E-2,2.4031542E-1,3.620085E-1,-2.1448456E-1,8.388002E-2,-1.3771467E-2,4.278E1,-4.9240386E-1,4.0975025E-1,5.611234E-1,6.9067407E-1,7.8E1,5.278553E-2,2.166418E-2,9.8068245E-2,-1.7018467E-1,-3.6854362E-3,-9.877167E-3,-4.4164762E-2,-1.6254708E-1,-7.545481E-2,-2.2881143E-2,7.3689315E-4,-3.939071E-2,1.50781665E-2,2.9946519E-2,7.156417E-2,2.5435813E-2,9.269841E-3],"split_indices":[7,6,7,5,6,6,0,6,0,7,7,7,5,0,5,0,4,7,6,5,6,0,0,0,0,0,0,0,0,0,0,0,0,0,0,0,0,0,0],"split_type":[0,0,0,0,0,0,0,0,0,0,0,0,0,0,0,0,0,0,0,0,0,0,0,0,0,0,0,0,0,0,0,0,0,0,0,0,0,0,0],"sum_hessian":[5.18E2,4.28E2,9E1,3.1E1,3.97E2,4.3E1,4.7E1,1.6E1,1.5E1,3.37E2,6E1,2.9E1,1.4E1,1.2E1,4E0,3E0,1.2E1,3E1,3.07E2,9E0,5.1E1,1E1,1.9E1,1E0,1.3E1,2E0,2E0,1E0,1.1E1,2E0,2.8E1,2.14E2,9.3E1,5E0,4E0,2.4E1,2.7E1,8E0,2E0],"tree_param":{"num_deleted":"0","num_feature":"8","num_nodes":"39","size_leaf_vector":"1"}},{"base_weights":[-9.9345736E-2,-2.1500626E0,8.303585E0,-3.2255383E0,4.655086E0,5.492403E0,1.0752761E1,-1.1085222E1,-2.384709E0,-1.9385154E0,5.5981007E0,4.628365E0,8.914313E0,4.2882577E-2,1.091893E-1,-1.9049723E1,-4.159361E0,-8.3636465E0,-1.6038098E0,-4.1250463E0,1.2792768E0,3.8427806E0,7.9227104E0,7.0426273E0,3.8531673E0,9.430145E-2,2.3938274E-2,-7.740631E-3,-2.0216495E-1,-6.593273E-2,-3.342007E-2,-1.027669E-1,-5.909723E-2,-2.4513103E-2,-3.718354E-3,-1.6749796E-2,-5.2000973E-2,2.6575832E-2,-6.601969E-4,6.234733E-2,2.4068637E-2,1.0828781E-3,8.308017E-2,1.2874775E-2,7.601086E-2,2.827555E-2,5.2924216E-2],"categories":[],"categories_nodes":[],"categories_segments":[],"categories_sizes":[],"default_left":[0,1,0,0,0,1,0,1,0,0,0,0,0,0,0,0,0,0,1,0,0,0,0,0,0,0,0,0,0,0,0,0,0,0,0,0,0,0,0,0,0,0,0,0,0,0,0],"id":37,"left_children":[1,3,5,7,9,11,13,15,17,19,21,23,25,-1,-1,27,29,31,33,35,37,39,41,43,45,-1,-1,-1,-1,-1,-1,-1,-1,-1,-1,-1,-1,-1,-1,-1,-1,-1,-1,-1,-1,-1,-1],"loss_changes":[9.047438E3,3.1035366E3,6.50105E2,2.3857227E3,3.714879E2,1.0657434E2,1.1183594E1,1.8514014E3,1.5320076E3,6.156349E1,1.7765698E2,5.1467896E1,7.6971436E0,0E0,0E0,3.2552783E2,1.7752563E1,1.1765723E2,3.060536E2,4.4596786E0,7.5923758E0,9.146777E1,6.2330322E1,1.9139923E1,3.522339E1,0E0,0E0,0E0,0E0,0E0,0E0,0E0,0E0,0E0,0E0,0E0,0E0,0E0,0E0,0E0,0E0,0E0,0E0,0E0,0E0,0E0,0E0],"parents":[2147483647,0,0,1,1,2,2,3,3,4,4,5,5,6,6,7,7,8,8,9,9,10,10,11,11,12,12,15,15,16,16,17,17,18,18,19,19,20,20,21,21,22,22,23,23,24,24],"right_children":[2,4,6,8,10,12,14,16,18,20,22,24,26,-1,-1,28,30,32,34,36,38,40,42,44,46,-1,-1,-1,-1,-1,-1,-1,-1,-1,-1,-1,-1,-1,-1,-1,-1,-1,-1,-1,-1,-1,-1],"split_conditions":[1.9151111E-1,5.696528E-1,4.330127E-1,1.22966975E-1,-8.550504E-2,5.5195963E-1,1.16E1,1.2639733E-1,-5.2264232E-2,5.420144E-1,8.654614E-1,